tree
version=v3
num_class=3
num_tree_per_iteration=3
label_index=0
max_feature_idx=3
objective=multiclass num_class:3
feature_names=bill_length_mm bill_depth_mm flipper_length_mm body_mass_g
feature_infos=[32.100000000000001:59.600000000000001] [13.1:21.5] [172:231] [2700:6300]
tree_sizes=449 743 446 426 736 439 426 634 442 425 635 527 428 546 425 938 838 426 534 899 443 916 827 445 427 829 445 696 828 548 594 824 445 509 824 444 613 547 442 628 632 530 632 729 442 612 628 530 611 549 444 619 706 444 607 549 445 618 548 508 603 648 507 603 528 532 619 706 506 621 710 534 620 652 535 706 630 525 707 627 524 705 692 511 512 635 515 705 720 427 706 596 510 510 595 426 512 625 516 705 600 513 706 518 519 514 515 430 710 605 513 627 603 510 715 517 517 593 606 514 518 605 516 595 520 511 715 349 513 596 515 516 515 690 515 598 350 518 430 518 518 526 350 517 596 605 515 522 350 518 526 350 516 432 609 513 431 350 515 598 436 515 610 514 433 515 350 516 512 435 431 516 436 515 513 515 431 524 351 348 433 513 523 599 516 346 609 438 349 523 351 347 520 439 525 434 518 522 610 520 518 601 351 521 600 351 522 610 517 351 529 330 521 518 330 427 614 331 419 521 331 419 523 331 511 519 332 513 438 331 427 523 510 515 223 223 419 223 332 425 526 330 516 522 223 421 526 332 426 223 332 331 524 332 330 522 331 418 526 332 514 525 332 332 223 332 418 525 223 334 523 330 429 223 332 416 223 223 333 526 223 333 526 223 333 439 223 333 223 332 333 223 332 223 528 332 334 223 332 334 528 223 334 440 331 333 223 223 333 528 331 333 525 329 334 440 223 333 525 330 334 527 332 223 440 331 223 223 332 223 527 331 223 223 331 223 528 332 223 438 332 223 526 330 223 528 329 223 442 223 223 528 329 223 527 223 223 443 223 223 528 332 223 223 332 223 528 332 223 444 223 223 529 332 223 223 332 223 530 332 223 443 331 223 223 331 223 528 223 223 443 332 223 528 332 223 530 331 223 443 223 223 530 332 223 223 332 223 529 332 223 444 223 223 530 331 223 223 331 223 536 332 223 528 223 223 444 331 223 530 332 223 531 223 223 442 332 223 223 332 223 223 332 223 529 331 223 536 332 223 527 223 223 223 332 223 444 332 223 530 223 223 528 331 223 223 332 223 537 331 223 444 332 223 530 332 223 530 332 223 536 332 223 530 332 223 444 331 223 530 223 223 534 332 223 531 332 223 443 332 223 527 332 223 536 332 223 531 223 223 443 331 223 531 223 223 530 331 223 535 332 223 528 332 223 223 331 223 223 331 223 444 223 223 536 223 223 431 223 223 223 332 223 530 223 223 441 332 223

Tree=0
num_leaves=3
num_cat=0
split_feature=0 0
split_gain=114.573 5.40056
threshold=42.250000000000007 43.250000000000007
decision_type=8 10
left_child=-1 -2
right_child=1 -3
leaf_value=-0.68019439928112591 -0.81860148671298028 -0.92455002182074941
leaf_weight=34.390191704034805 4.8072310984134665 45.483801931142807
leaf_count=93 13 123
internal_value=-0.818601 -0.914101
internal_weight=0 50.291
internal_count=229 136
is_linear=0
shrinkage=1


Tree=1
num_leaves=6
num_cat=0
split_feature=0 3 0 0 0
split_gain=28.4908 70.3799 1.68731 0.168807 0.0459536
threshold=45.150000000000013 4325.0000000000009 50.750000000000007 42.250000000000007 43.900000000000006
decision_type=10 10 8 10 10
left_child=3 -2 -3 -1 -5
right_child=1 2 -4 4 -6
leaf_value=-1.702244381308603 -1.3553299250177182 -1.6962893758029711 -1.6270595137839199 -1.6270595137839199 -1.6557102778848569
leaf_weight=22.49957159161568 9.9471790194511431 12.315554976463314 3.0788887441158304 4.0262391269206992 2.3683759570121765
leaf_count=95 42 52 13 17 10
internal_value=-1.62706 -1.55123 -1.68057 -1.69387 -1.64472
internal_weight=0 25.3416 15.3944 28.8942 6.39462
internal_count=229 107 65 122 27
is_linear=0
shrinkage=1


Tree=2
num_leaves=3
num_cat=0
split_feature=2 3
split_gain=120.293 6.34855
threshold=204.00000000000003 4325.0000000000009
decision_type=8 10
left_child=-1 -2
right_child=1 -3
leaf_value=-1.1132547042423011 -1.0146091956403669 -0.84799595706410091
leaf_weight=48.179918110370636 3.8127992749214199 27.382831156253815
leaf_count=139 11 79
internal_value=-1.01488 -0.864613
internal_weight=0 31.1956
internal_count=229 90
is_linear=0
shrinkage=1


Tree=3
num_leaves=3
num_cat=0
split_feature=0 0
split_gain=91.6276 4.50017
threshold=42.250000000000007 43.250000000000007
decision_type=8 10
left_child=-1 -2
right_child=1 -3
leaf_value=0.12211379936599794 0 -0.097163155903049428
leaf_weight=34.867410570383072 4.8082175254821768 44.169480681419373
leaf_count=93 13 123
internal_value=0 -0.0873612
internal_weight=0 48.9777
internal_count=229 136
is_linear=0
shrinkage=0.1


Tree=4
num_leaves=6
num_cat=0
split_feature=0 3 1 0 0
split_gain=23.423 47.9132 2.07535 0.0940495 0.0340042
threshold=45.150000000000013 4325.0000000000009 16.350000000000005 42.250000000000007 43.250000000000007
decision_type=10 10 8 10 10
left_child=3 -2 -3 -1 -5
right_child=1 2 -4 4 -6
leaf_value=-0.072933543318564512 0.20522709079550291 -0.068011405808794542 0.0016886046264840517 0 -0.023067805049709081
leaf_weight=20.931586056947712 12.165072381496431 12.342017397284504 2.3477512151002893 2.6149051487445822 3.7421112507581711
leaf_count=95 42 55 10 11 16
internal_value=0 0.0646234 -0.0511006 -0.0645591 -0.017227
internal_weight=0 26.8548 14.6898 27.2886 6.35702
internal_count=229 107 65 122 27
is_linear=0
shrinkage=0.1


Tree=5
num_leaves=3
num_cat=0
split_feature=2 1
split_gain=97.1126 12.0353
threshold=204.00000000000003 17.150000000000002
decision_type=8 8
left_child=-1 -2
right_child=1 -3
leaf_value=-0.092841720058082 0.15069612121903364 -0.017510561835906744
leaf_weight=45.935245871543884 29.187226891517639 3.5188381671905509
leaf_count=139 80 10
internal_value=0 0.129649
internal_weight=0 32.7061
internal_count=229 90
is_linear=0
shrinkage=0.1


Tree=6
num_leaves=3
num_cat=0
split_feature=0 0
split_gain=74.3017 3.84115
threshold=42.250000000000007 43.250000000000007
decision_type=8 10
left_child=-1 -2
right_child=1 -3
leaf_value=0.10997833979306784 0 -0.090052459242212501
leaf_weight=34.536439538002014 4.7937688529491416 42.357682317495346
leaf_count=93 13 123
internal_value=0 -0.0806497
internal_weight=0 47.1515
internal_count=229 136
is_linear=0
shrinkage=0.1


Tree=7
num_leaves=5
num_cat=0
split_feature=0 1 0 0
split_gain=19.5697 36.0177 0.0614473 0.0297796
threshold=45.150000000000013 16.350000000000005 42.250000000000007 43.900000000000006
decision_type=10 10 10 10
left_child=2 -2 -1 -4
right_child=1 -3 3 -5
leaf_value=-0.070789082309225204 -0.066447318624437798 0.15344723415544886 0 -0.025906163149338159
leaf_weight=19.379801601171497 11.839777529239656 15.809024319052694 4.0072134137153617 2.2535830587148666
leaf_count=95 56 51 17 10
internal_value=0 0.0567608 -0.062299 -0.0161159
internal_weight=0 27.6488 25.6406 6.2608
internal_count=229 107 122 27
is_linear=0
shrinkage=0.1


Tree=8
num_leaves=3
num_cat=0
split_feature=2 1
split_gain=79.4405 9.88571
threshold=204.00000000000003 17.150000000000002
decision_type=8 8
left_child=-1 -2
right_child=1 -3
leaf_value=-0.088196796808291886 0.13303324980175529 -0.017459479551056273
leaf_weight=43.432603269815445 29.865995794534683 3.5061741173267356
leaf_count=139 80 10
internal_value=0 0.114265
internal_weight=0 33.3722
internal_count=229 90
is_linear=0
shrinkage=0.1


Tree=9
num_leaves=3
num_cat=0
split_feature=0 0
split_gain=60.8852 3.31687
threshold=42.250000000000007 43.250000000000007
decision_type=8 10
left_child=-1 -2
right_child=1 -3
leaf_value=0.1005955632327824 0 -0.084135088590873347
leaf_weight=33.607301145792007 4.7704295217990866 40.224028617143631
leaf_count=93 13 123
internal_value=0 -0.0749892
internal_weight=0 44.9945
internal_count=229 136
is_linear=0
shrinkage=0.1


Tree=10
num_leaves=5
num_cat=0
split_feature=0 1 0 0
split_gain=16.3824 27.7091 0.0295639 0.0232782
threshold=45.150000000000013 16.350000000000005 42.250000000000007 43.900000000000006
decision_type=10 10 10 10
left_child=2 -2 -1 -4
right_child=1 -3 3 -5
leaf_value=-0.06873700138072289 -0.064189771331714759 0.12919588891727299 0 -0.024202805599803284
leaf_weight=17.869961932301525 11.002238661050798 17.031228199601173 3.9842143803834906 2.182033360004425
leaf_count=95 56 51 17 10
internal_value=0 0.0502572 -0.0601202 -0.0150871
internal_weight=0 28.0335 24.0362 6.16625
internal_count=229 107 122 27
is_linear=0
shrinkage=0.1


Tree=11
num_leaves=4
num_cat=0
split_feature=1 3 3
split_gain=61.8101 6.40065 2.7531
threshold=16.350000000000005 4562.5000000000009 4287.5000000000009
decision_type=10 10 10
left_child=2 -2 -1
right_child=1 -3 -4
leaf_value=0 -0.087084892269126468 0.024391633504269698 0.11909983514860692
leaf_weight=3.2378512322902706 40.146159917116165 3.9225845932960501 26.823274523019791
leaf_count=10 136 11 72
internal_value=0 -0.0746224 0.108719
internal_weight=0 44.0687 30.0611
internal_count=229 147 82
is_linear=0
shrinkage=0.1


Tree=12
num_leaves=3
num_cat=0
split_feature=0 0
split_gain=50.4681 2.90006
threshold=42.250000000000007 43.250000000000007
decision_type=8 10
left_child=-1 -2
right_child=1 -3
leaf_value=0.093173017993070983 0 -0.079223528273607777
leaf_weight=32.270808458328247 4.7466986477375022 38.011538237333298
leaf_count=93 13 123
internal_value=0 -0.0702338
internal_weight=0 42.7582
internal_count=229 136
is_linear=0
shrinkage=0.1


Tree=13
num_leaves=4
num_cat=0
split_feature=0 1 2
split_gain=13.6946 21.6305 0.156425
threshold=45.150000000000013 16.350000000000005 204.00000000000003
decision_type=10 10 10
left_child=-1 -2 -3
right_child=1 2 -4
leaf_value=-0.058016309420739723 -0.061954437313357126 0.1215931290962889 0.021094028148802665
leaf_weight=22.495583936572075 10.177426666021349 14.619942665100099 3.2476394176483145
leaf_count=122 56 40 11
internal_value=0 0.0446337 0.110713
internal_weight=0 28.045 17.8676
internal_count=229 107 51
is_linear=0
shrinkage=0.1


Tree=14
num_leaves=3
num_cat=0
split_feature=2 3
split_gain=56.4694 3.84275
threshold=202.50000000000003 4325.0000000000009
decision_type=8 10
left_child=-1 -2
right_child=1 -3
leaf_value=-0.083196332272651718 0 0.10569933648161951
leaf_weight=37.265080809593201 4.3810039460659018 29.276937365531921
leaf_count=136 13 80
internal_value=0 0.0930125
internal_weight=0 33.6579
internal_count=229 93
is_linear=0
shrinkage=0.1


Tree=15
num_leaves=8
num_cat=0
split_feature=2 2 3 1 1 1 3
split_gain=26.3626 1.68735 0.373224 0.299715 0.0458171 0.0366687 0.0178118
threshold=202.50000000000003 197.50000000000003 3812.5000000000005 19.050000000000004 17.250000000000004 18.450000000000003 3562.5000000000005
decision_type=10 8 10 10 10 10 10
left_child=1 2 3 6 -2 -3 -1
right_child=4 5 -4 -5 -6 -7 -8
leaf_value=0.050106326987106098 -0.082861455390696073 -0.0028959797968460912 0.084738282510371549 0 -0.0055872917911040099 0.0077459287252734229 0.0080927148162828044
leaf_weight=16.343029826879508 23.032751321792606 3.2893775403499594 9.954685300588606 3.8440400958061209 3.1144520640373221 4.5119467675685883 7.0085554718971244
leaf_count=50 81 10 30 12 10 14 22
internal_value=0 0.0464034 0.0550989 0.0380825 -0.0778856 0 0.0424534
internal_weight=0 44.9516 37.1503 27.1956 26.1472 7.80132 23.3516
internal_count=229 138 114 84 91 24 72
is_linear=0
shrinkage=0.1


Tree=16
num_leaves=7
num_cat=0
split_feature=0 1 0 1 0 0
split_gain=11.599 17.5826 0.139592 0.460952 0.0826837 0.018343
threshold=45.150000000000013 16.350000000000005 46.150000000000013 17.350000000000005 42.250000000000007 43.250000000000007
decision_type=10 10 10 10 10 10
left_child=4 -2 -3 -4 -1 -6
right_child=1 2 3 -5 5 -7
leaf_value=-0.064984071123155449 -0.059769720827210431 0.022506825993378925 0.021844041061175833 0.12700622471241854 0 -0.015206165132447859
leaf_weight=15.148838505148889 9.3975134640932101 3.9565292000770595 3.5480873882770529 10.643632620573042 2.5196358263492575 3.2952185571193695
leaf_count=95 56 11 11 29 11 16
internal_value=0 0.0409259 0.0986888 0.110466 -0.0557148 -0.0109005
internal_weight=0 27.5458 18.1482 14.1917 20.9637 5.81485
internal_count=229 107 51 40 122 27
is_linear=0
shrinkage=0.1


Tree=17
num_leaves=3
num_cat=0
split_feature=2 3
split_gain=47.6707 3.34996
threshold=202.50000000000003 4325.0000000000009
decision_type=8 10
left_child=-1 -2
right_child=1 -3
leaf_value=-0.080260187847861764 0 0.097747464601514941
leaf_weight=34.570607036352158 4.3748101294040671 28.417498111724854
leaf_count=136 13 80
internal_value=0 0.0855937
internal_weight=0 32.7923
internal_count=229 93
is_linear=0
shrinkage=0.1


Tree=18
num_leaves=4
num_cat=0
split_feature=0 0 1
split_gain=37.3055 2.1569 0.0373182
threshold=42.250000000000007 43.250000000000007 19.550000000000004
decision_type=8 10 10
left_child=-1 -2 -3
right_child=1 2 -4
leaf_value=0.083575906087098417 0 -0.076348415818653093 -0.0070190098754013761
leaf_weight=29.360242456197739 4.6457796692848197 30.343965992331505 3.5867093801498404
leaf_count=93 13 111 12
internal_value=0 -0.0637795 -0.0722934
internal_weight=0 38.5765 33.9307
internal_count=229 136 123
is_linear=0
shrinkage=0.1


Tree=19
num_leaves=8
num_cat=0
split_feature=1 2 3 1 1 2 3
split_gain=8.06827 2.0877 1.60851 0.991514 0.785159 0.378354 0.183699
threshold=16.350000000000005 191.50000000000003 4062.5000000000005 17.850000000000005 18.450000000000003 186.50000000000003 3462.5000000000005
decision_type=10 10 10 10 10 10 10
left_child=-1 3 -3 5 -4 -2 -5
right_child=1 2 4 6 -6 -7 -8
leaf_value=-0.063895494600732058 0 0.064582114538774063 -0.0314456214216128 0 0.027229878272098735 0.035870084277634877 -0.042454501410021023
leaf_weight=13.166664972901343 2.5574647784233075 13.339410796761515 2.5304367393255225 2.2510613650083542 4.8810534328222275 4.0392144769430161 4.022181823849678
leaf_count=82 14 49 11 12 18 18 25
internal_value=0 0.025688 0.0448346 0 0 0.0188533 -0.0314957
internal_weight=0 33.6208 20.7509 12.8699 7.41149 6.59668 6.27324
internal_count=229 147 78 69 29 32 37
is_linear=0
shrinkage=0.1


Tree=20
num_leaves=3
num_cat=0
split_feature=2 1
split_gain=40.7725 8.29627
threshold=202.50000000000003 17.350000000000005
decision_type=8 8
left_child=-1 -2
right_child=1 -3
leaf_value=-0.077849523416440525 0.098670910635344014 -0.037467544073623897
leaf_weight=32.26870596408844 28.029118150472645 3.5838873684406272
leaf_count=136 82 11
internal_value=0 0.0794954
internal_weight=0 31.613
internal_count=229 93
is_linear=0
shrinkage=0.1


Tree=21
num_leaves=8
num_cat=0
split_feature=2 2 3 1 1 1 1
split_gain=18.7105 1.38047 0.3481 0.179092 0.0928319 0.0483653 0.00839495
threshold=202.50000000000003 197.50000000000003 3812.5000000000005 19.050000000000004 17.250000000000004 16.650000000000002 18.450000000000003
decision_type=10 8 10 10 10 10 10
left_child=1 2 3 5 -2 -1 -3
right_child=4 6 -4 -5 -6 -7 -8
leaf_value=0 -0.076257825079120753 -0.0028307288365868183 0.07639209325602675 0 -0.00048947689321208988 0.038269859784176373 0.0031072145599557906
leaf_weight=3.3601509630680146 19.670855566859249 3.1732438504695883 9.1687248647212964 3.6106114387512198 2.94188567996025 18.148375421762466 4.2315155565738678
leaf_count=11 81 10 30 12 10 61 14
internal_value=0 0.0398586 0.0480966 0.0314106 -0.0710737 0.0349922 0
internal_weight=0 41.6926 34.2879 25.1191 22.6127 21.5085 7.40476
internal_count=229 138 114 84 91 72 24
is_linear=0
shrinkage=0.1


Tree=22
num_leaves=7
num_cat=0
split_feature=0 3 3 3 0 0
split_gain=9.95196 13.8514 0.990572 0.775996 0.841936 0.0214068
threshold=45.150000000000013 4562.5000000000009 4125.0000000000009 3412.5000000000005 40.250000000000007 51.850000000000009
decision_type=10 10 10 8 10 8
left_child=3 2 -2 4 -1 -3
right_child=1 5 -4 -5 -6 -7
leaf_value=-0.03557052895112716 0.10858545483387977 -0.055029279686390979 0.0098120351426026868 -0.064962807464029007 0.033874143106153651 0
leaf_weight=3.4616153538227108 13.036035656929021 7.3261638879775974 3.8766167014837256 14.339282765984533 1.4177303314208982 1.7165603041648871
leaf_count=24 35 50 14 91 7 8
internal_value=0 0.0397285 0.0933395 -0.053084 0 -0.0498929
internal_weight=0 25.9554 16.9127 19.2186 4.87935 9.04272
internal_count=229 107 49 122 31 58
is_linear=0
shrinkage=0.1


Tree=23
num_leaves=3
num_cat=0
split_feature=2 1
split_gain=34.7293 7.34267
threshold=202.50000000000003 17.350000000000005
decision_type=8 8
left_child=-1 -2
right_child=1 -3
leaf_value=-0.075621794449590482 0.093023478473503493 -0.035410955884457349
leaf_weight=29.801230952143669 26.608909726142887 3.5203456580638877
leaf_count=136 82 11
internal_value=0 0.0741491
internal_weight=0 30.1293
internal_count=229 93
is_linear=0
shrinkage=0.1


Tree=24
num_leaves=3
num_cat=0
split_feature=0 0
split_gain=28.7615 1.64344
threshold=42.250000000000007 43.250000000000007
decision_type=8 10
left_child=-1 -2
right_child=1 -3
leaf_value=0.077235491279630628 0 -0.067067307488574035
leaf_weight=26.51748713850975 4.4969823360443106 30.102251991629601
leaf_count=93 13 123
internal_value=0 -0.0588912
internal_weight=0 34.5992
internal_count=229 136
is_linear=0
shrinkage=0.1


Tree=25
num_leaves=7
num_cat=0
split_feature=0 3 3 0 3 0
split_gain=8.99619 11.8928 0.752649 0.759469 0.691238 0.0346044
threshold=45.150000000000013 4562.5000000000009 3412.5000000000005 40.250000000000007 4125.0000000000009 51.850000000000009
decision_type=10 10 8 10 10 10
left_child=2 4 3 -1 -2 -3
right_child=1 5 -4 -5 -6 -7
leaf_value=-0.034213018245548024 0.10188153529213005 -0.052617984871150117 -0.063456782869328252 0.032055425109343942 0.0099056723237072805 0
leaf_weight=3.3416261076927212 12.861339479684835 6.7206766009330732 13.389791011810301 1.4453121572732923 3.851094350218772 1.6674712449312208
leaf_count=24 35 50 91 7 14 8
internal_value=0 0.0389239 -0.0512749 0 0.0880888 -0.0473291
internal_weight=0 25.1006 18.1767 4.78694 16.7124 8.38815
internal_count=229 107 122 31 49 58
is_linear=0
shrinkage=0.1


Tree=26
num_leaves=3
num_cat=0
split_feature=2 1
split_gain=29.7614 6.49708
threshold=202.50000000000003 17.350000000000005
decision_type=8 8
left_child=-1 -2
right_child=1 -3
leaf_value=-0.073642500713438447 0.088071216148321044 -0.033255394651867026
leaf_weight=27.656402751803398 25.076309889554981 3.4425866007804862
leaf_count=136 82 11
internal_value=0 0.0694075
internal_weight=0 28.5189
internal_count=229 93
is_linear=0
shrinkage=0.1


Tree=27
num_leaves=6
num_cat=0
split_feature=2 3 1 2 2
split_gain=13.5211 1.47826 0.434541 0.104793 0.0894324
threshold=199.50000000000003 4025.0000000000005 16.650000000000002 192.50000000000003 193.50000000000003
decision_type=10 10 10 10 10
left_child=2 -2 -1 -4 -5
right_child=1 -3 3 4 -6
leaf_value=0 0 -0.06805602262907727 0.054324915847233451 0 0.020829044072105327
leaf_weight=4.3772443532943717 2.882521957159045 19.530757561326027 18.194278061389927 2.6054033488035193 9.4745442420244199
leaf_count=15 10 92 68 10 34
internal_value=0 -0.0585664 0.0392427 0.0435256 0.016705
internal_weight=0 22.4133 34.6515 30.2742 12.0799
internal_count=229 102 127 112 44
is_linear=0
shrinkage=0.1


Tree=28
num_leaves=7
num_cat=0
split_feature=0 3 3 0 3 0
split_gain=7.59551 9.88111 0.779995 0.638167 0.558532 0.0445316
threshold=45.150000000000013 4562.5000000000009 3412.5000000000005 40.250000000000007 4125.0000000000009 51.850000000000009
decision_type=10 10 8 10 10 10
left_child=2 4 3 -1 -2 -3
right_child=1 5 -4 -5 -6 -7
leaf_value=-0.031520612821030955 0.09413915593242711 -0.050351974547564994 -0.061743219022548396 0.030512955183609108 0.007538237831987574 0
leaf_weight=3.1157909631729153 12.480472296476369 6.1656335443258277 12.296502962708471 1.4622195214033125 3.8215218484401694 1.6201899796724317
leaf_count=24 35 50 91 7 14 8
internal_value=0 0.0363043 -0.0489844 0 0.0812268 -0.0449121
internal_weight=0 24.0878 16.8745 4.57801 16.302 7.78582
internal_count=229 107 122 31 49 58
is_linear=0
shrinkage=0.1


Tree=29
num_leaves=4
num_cat=0
split_feature=1 3 3
split_gain=24.7227 4.70163 0.176873
threshold=16.350000000000005 5150.0000000000009 4325.0000000000009
decision_type=10 10 10
left_child=2 -2 -1
right_child=1 -3 -4
leaf_value=0.00181263524705095 -0.074153081950309341 0.039650559027101101 0.080856093957014569
leaf_weight=3.0474543422460583 27.126004323363308 2.3237974345684043 19.820343196392059
leaf_count=11 140 7 71
internal_value=0 -0.0608818 0.0750295
internal_weight=0 29.4498 22.8678
internal_count=229 147 82
is_linear=0
shrinkage=0.1


Tree=30
num_leaves=5
num_cat=0
split_feature=2 3 2 1
split_gain=11.4743 1.30087 0.367199 0.210688
threshold=199.50000000000003 4025.0000000000005 197.50000000000003 16.650000000000002
decision_type=10 10 8 10
left_child=2 -2 3 -1
right_child=1 -3 -4 -5
leaf_value=0 0 -0.065553935772028116 0 0.043261727520709871
leaf_weight=3.0337495803833034 2.8301356732845333 18.05188162624836 3.6110986769199362 26.601438209414482
leaf_count=11 10 92 13 103
internal_value=0 -0.0560984 0.0366018 0.0402177
internal_weight=0 20.882 33.2463 29.6352
internal_count=229 102 127 114
is_linear=0
shrinkage=0.1


Tree=31
num_leaves=7
num_cat=0
split_feature=0 3 3 0 3 0
split_gain=6.7654 8.53746 0.777525 0.566328 0.495639 0.0324525
threshold=45.150000000000013 4562.5000000000009 3412.5000000000005 40.250000000000007 4125.0000000000009 51.850000000000009
decision_type=10 10 8 10 8 10
left_child=2 4 3 -1 -2 -3
right_child=1 5 -4 -5 -6 -7
leaf_value=-0.02979848097593419 0.089360462743368577 -0.048036646903857116 -0.060406145877386679 0.029315659269680966 0.005909304674051874 0
leaf_weight=2.9799429252743694 12.128949999809265 5.6721497625112525 11.519487254321575 1.4776318967342374 3.8041910380125055 1.5989517569541929
leaf_count=24 35 50 91 7 14 8
internal_value=0 0.035057 -0.047253 0 0.0768669 -0.0426872
internal_weight=0 23.2042 15.9771 4.45757 15.9331 7.2711
internal_count=229 107 122 31 49 58
is_linear=0
shrinkage=0.1


Tree=32
num_leaves=3
num_cat=0
split_feature=2 1
split_gain=22.3337 5.28738
threshold=202.50000000000003 17.350000000000005
decision_type=8 8
left_child=-1 -2
right_child=1 -3
leaf_value=-0.070113011521655097 0.081150184559490482 -0.029489329012995138
leaf_weight=23.513671606779099 22.078503549098972 3.2841623723506919
leaf_count=136 82 11
internal_value=0 0.0624553
internal_weight=0 25.3627
internal_count=229 93
is_linear=0
shrinkage=0.1


Tree=33
num_leaves=4
num_cat=0
split_feature=0 1 0
split_gain=19.7395 1.73942 0.47003
threshold=42.250000000000007 20.050000000000004 43.250000000000007
decision_type=8 8 10
left_child=-1 2 -2
right_child=1 -3 -4
leaf_value=0.069912563266628189 0 0 -0.066038951379083943
leaf_weight=22.161417692899704 3.1361559033393922 2.586223065853118 23.370105251669884
leaf_count=93 10 8 118
internal_value=0 -0.0528924 -0.0607702
internal_weight=0 29.0925 26.5063
internal_count=229 136 128
is_linear=0
shrinkage=0.1


Tree=34
num_leaves=7
num_cat=0
split_feature=0 3 3 0 0 2
split_gain=6.11672 7.41373 0.761433 0.505976 0.50206 0.250985
threshold=45.150000000000013 4562.5000000000009 3412.5000000000005 40.250000000000007 46.150000000000013 210.50000000000003
decision_type=10 8 8 10 10 10
left_child=2 4 3 -1 -2 -3
right_child=1 5 -4 -5 -6 -7
leaf_value=-0.028240202866208559 0.0028761975424138617 0 -0.058978851094082962 0.02818441794968729 0.085660088383480687 -0.047417639400176938
leaf_weight=2.8626453205943081 3.6550372093915966 1.0849902778863896 10.755909092724323 1.4916497170925138 11.882733456790445 5.666312076151371
leaf_count=24 12 6 91 7 37 52
internal_value=0 0.0346048 -0.0454498 0 0.0735846 -0.0401237
internal_weight=0 22.2891 15.1102 4.3543 15.5378 6.7513
internal_count=229 107 122 31 49 58
is_linear=0
shrinkage=0.1


Tree=35
num_leaves=3
num_cat=0
split_feature=2 1
split_gain=19.3049 4.83568
threshold=202.50000000000003 17.350000000000005
decision_type=8 8
left_child=-1 -2
right_child=1 -3
leaf_value=-0.068586017716199016 0.077978138556690224 -0.028339774278328442
leaf_weight=21.756890937685966 20.53699861466885 3.2317677289247504
leaf_count=136 82 11
internal_value=0 0.0589245
internal_weight=0 23.7688
internal_count=229 93
is_linear=0
shrinkage=0.1


Tree=36
num_leaves=5
num_cat=0
split_feature=0 0 2 3
split_gain=16.7933 0.987803 0.828833 0.443083
threshold=42.250000000000007 46.150000000000013 197.50000000000003 4325.0000000000009
decision_type=8 10 10 10
left_child=3 2 -2 -1
right_child=1 -3 -4 -5
leaf_value=0.071969904835988516 0 -0.068707703387711344 -0.039717515872024683 0
leaf_weight=18.538638710975651 5.7711879462003726 15.676443904638289 5.7206108719110489 1.9669038504362095
leaf_count=85 18 86 32 8
internal_value=0 -0.050262 -0.0136083 0.0670813
internal_weight=0 27.1682 11.4918 20.5055
internal_count=229 136 50 93
is_linear=0
shrinkage=0.1


Tree=37
num_leaves=4
num_cat=0
split_feature=0 3 1
split_gain=5.21709 8.28841 2.37685
threshold=42.250000000000007 4062.5000000000005 18.350000000000005
decision_type=10 10 8
left_child=-1 -2 -3
right_child=1 2 -4
leaf_value=-0.056340272691735263 0.082998806005298173 -0.055403249198118502 0.019471973321259401
leaf_weight=9.8475670292973501 12.458117082715036 8.6665753349661792 4.298003852367402
leaf_count=95 40 81 13
internal_value=0 0.0259099 -0.0238029
internal_weight=0 25.4227 12.9646
internal_count=229 134 94
is_linear=0
shrinkage=0.1


Tree=38
num_leaves=3
num_cat=0
split_feature=2 1
split_gain=16.6903 4.68212
threshold=202.50000000000003 17.950000000000003
decision_type=8 10
left_child=-1 -2
right_child=1 -3
leaf_value=-0.067003575617178554 0.074185434821823465 -0.03992083053917321
leaf_weight=19.925185136497021 19.760831370949749 2.4661613106727591
leaf_count=136 84 9
internal_value=0 0.056046
internal_weight=0 22.227
internal_count=229 93
is_linear=0
shrinkage=0.1


Tree=39
num_leaves=5
num_cat=0
split_feature=0 1 0 2
split_gain=14.186 1.57063 2.36335 0.230316
threshold=42.250000000000007 17.950000000000003 46.150000000000013 199.50000000000003
decision_type=8 8 8 10
left_child=3 -2 -3 -1
right_child=1 2 -4 -5
leaf_value=0.069087545248812041 -0.066391263910283577 0.043127668052483768 -0.047039741150516207 0
leaf_weight=16.806330129504207 15.975990608334543 3.6014214307069752 5.8358800262212762 2.0578542351722708
leaf_count=85 100 11 25 8
internal_value=0 -0.047331 -0.00221412 0.0645188
internal_weight=0 25.4133 9.4373 18.8642
internal_count=229 136 36 93
is_linear=0
shrinkage=0.1


Tree=40
num_leaves=5
num_cat=0
split_feature=0 3 0 0
split_gain=4.46854 6.94524 1.63134 0.0210218
threshold=42.250000000000007 4062.5000000000005 50.750000000000007 48.650000000000013
decision_type=10 10 8 10
left_child=-1 -2 3 -3
right_child=1 2 -4 -5
leaf_value=-0.054435782458240892 0.077843821399162502 -0.051231671026844797 0.01565564419073337 0
leaf_weight=8.9723759293556196 11.914947718381883 7.2913144826889003 3.4410140216350564 1.4602782055735586
leaf_count=95 40 63 16 15
internal_value=0 0.0245519 -0.0218994 -0.0470116
internal_weight=0 24.1076 12.1926 8.75159
internal_count=229 134 94 78
is_linear=0
shrinkage=0.1


Tree=41
num_leaves=4
num_cat=0
split_feature=1 3 3
split_gain=14.4096 2.11598 1.24118
threshold=16.550000000000004 5150.0000000000009 4175.0000000000009
decision_type=10 10 10
left_child=2 -2 -1
right_child=1 -3 -4
leaf_value=0 -0.068404099686152839 0.0091285020721348781 0.070498840988287376
leaf_weight=2.6356143206357983 19.292782947421077 1.3813986182212818 15.602760016918181
leaf_count=13 136 5 75
internal_value=0 -0.0584276 0.0603659
internal_weight=0 20.6742 18.2384
internal_count=229 141 88
is_linear=0
shrinkage=0.1


Tree=42
num_leaves=5
num_cat=0
split_feature=0 1 0 2
split_gain=12.1214 1.42835 2.04726 0.202148
threshold=42.250000000000007 17.950000000000003 46.250000000000007 199.50000000000003
decision_type=8 8 10 10
left_child=3 -2 -3 -1
right_child=1 2 -4 -5
leaf_value=0.066814856870817313 -0.064182978417022196 0.033433152105176611 -0.049933927869051438 0
leaf_weight=15.364463716745378 14.645542524755003 4.3492174446582776 4.8180764019489288 1.9900489598512638
leaf_count=85 100 13 23 8
internal_value=0 -0.0449709 -0.00114861 0.0622098
internal_weight=0 23.8128 9.16729 17.3545
internal_count=229 136 36 93
is_linear=0
shrinkage=0.1


Tree=43
num_leaves=6
num_cat=0
split_feature=1 2 3 2 3
split_gain=2.70845 0.553473 0.681435 0.271685 0.0058805
threshold=16.350000000000005 186.50000000000003 4062.5000000000005 199.50000000000003 3662.5000000000005
decision_type=10 10 10 10 10
left_child=-1 4 -3 -4 -2
right_child=1 2 3 -5 -6
leaf_value=-0.049364131801794067 -0.004824859820325534 0.035976425948834843 -0.018549730540998146 0.016362062682114206 0
leaf_weight=6.80659241229296 1.5797070711851149 14.768408179283144 3.5147489309310904 3.3454877659678459 1.1888955384492872
leaf_count=82 18 84 21 14 10
internal_value=0 0.0178159 0.0245107 0 -0.00057562
internal_weight=0 24.3972 21.6286 6.86024 2.7686
internal_count=229 147 119 35 28
is_linear=0
shrinkage=0.1


Tree=44
num_leaves=3
num_cat=0
split_feature=2 1
split_gain=12.46 3.79845
threshold=202.50000000000003 17.950000000000003
decision_type=8 10
left_child=-1 -2
right_child=1 -3
leaf_value=-0.063928824591129099 0.069166854184921286 -0.035025724832240583
leaf_weight=16.636447459459305 17.071958303451542 2.3001088500022879
leaf_count=136 84 9
internal_value=0 0.050775
internal_weight=0 19.3721
internal_count=229 93
is_linear=0
shrinkage=0.1


Tree=45
num_leaves=5
num_cat=0
split_feature=0 0 2 3
split_gain=10.6449 1.02404 0.454296 0.401159
threshold=42.250000000000007 46.150000000000013 197.50000000000003 4325.0000000000009
decision_type=8 10 10 10
left_child=3 2 -2 -1
right_child=1 -3 -4 -5
leaf_value=0.065750419011883651 0 -0.063121448792962026 -0.029769293843771312 0
leaf_weight=14.593871861696245 5.5864021331071871 12.274997204542158 4.5725542306900024 1.6759228259325016
leaf_count=85 18 86 32 8
internal_value=0 -0.0428596 -0.00595331 0.0605912
internal_weight=0 22.434 10.159 16.2698
internal_count=229 136 50 93
is_linear=0
shrinkage=0.1


Tree=46
num_leaves=5
num_cat=0
split_feature=0 3 0 0
split_gain=3.58656 5.11556 1.29649 0.0353303
threshold=42.250000000000007 4062.5000000000005 50.750000000000007 48.650000000000013
decision_type=10 10 8 10
left_child=-1 -2 3 -3
right_child=1 2 -4 -5
leaf_value=-0.05181528774345473 0.070363940282530651 -0.04706936266434697 0.013349944814892266 0
leaf_weight=7.9094533920288113 10.95650574564934 6.4244966879487011 3.3325814530253419 1.3029446154832838
leaf_count=95 40 63 16 15
internal_value=0 0.0227813 -0.0179901 -0.0429451
internal_weight=0 22.0165 11.06 7.72744
internal_count=229 134 94 78
is_linear=0
shrinkage=0.1


Tree=47
num_leaves=4
num_cat=0
split_feature=1 2 2
split_gain=10.8811 1.81786 1.28652
threshold=16.550000000000004 218.50000000000003 204.00000000000003
decision_type=10 10 10
left_child=2 -2 -1
right_child=1 -3 -4
leaf_value=0 -0.065737322933514988 0.0047727871616725561 0.066727794349706826
leaf_weight=2.1065220087766638 16.393494151532654 1.2949626445770253 13.517099931836126
leaf_count=12 136 5 76
internal_value=0 -0.0552452 0.0558073
internal_weight=0 17.6885 15.6236
internal_count=229 141 88
is_linear=0
shrinkage=0.1


Tree=48
num_leaves=5
num_cat=0
split_feature=0 0 3 2
split_gain=9.09189 0.976005 0.361909 0.361412
threshold=42.250000000000007 46.150000000000013 4325.0000000000009 197.50000000000003
decision_type=8 10 8 10
left_child=2 3 -1 -2
right_child=1 -3 -4 -5
leaf_value=0.063657460910275118 0 -0.061248684310104162 0 -0.0268035004528419
leaf_weight=13.331025794148442 5.5347216278314608 11.268883518874643 1.6149325370788581 4.3080145418643951
leaf_count=85 18 86 8 32
internal_value=0 -0.0406094 0.0584373 -0.00428732
internal_weight=0 21.1116 14.946 9.84274
internal_count=229 136 93 50
is_linear=0
shrinkage=0.1


Tree=49
num_leaves=4
num_cat=0
split_feature=0 1 0
split_gain=3.02051 4.07985 0.42863
threshold=42.250000000000007 16.350000000000005 46.150000000000013
decision_type=10 10 10
left_child=-1 -2 -3
right_child=1 2 -4
leaf_value=-0.049851222265023663 -0.042343105006591018 0.0026894261246006965 0.062614367220792735
leaf_weight=7.2238875702023533 5.0570175275206593 5.7214593440294257 10.208591759204863
leaf_count=95 73 21 40
internal_value=0 0.0210771 0.0484284
internal_weight=0 20.9871 15.9301
internal_count=229 134 61
is_linear=0
shrinkage=0.1


Tree=50
num_leaves=3
num_cat=0
split_feature=1 2
split_gain=9.45882 2.28481
threshold=16.350000000000005 218.50000000000003
decision_type=10 10
left_child=-1 -2
right_child=1 -3
leaf_value=0.057022657430660789 -0.064611433567321616 0.01609634941291465
leaf_weight=13.679294072091581 15.5293173417449 1.7073974162340171
leaf_count=82 140 7
internal_value=0 -0.0506892
internal_weight=0 17.2367
internal_count=229 147
is_linear=0
shrinkage=0.1


Tree=51
num_leaves=5
num_cat=0
split_feature=0 1 0 2
split_gain=7.78347 1.42375 1.75264 0.198723
threshold=42.250000000000007 17.550000000000004 46.250000000000007 199.50000000000003
decision_type=8 8 10 8
left_child=3 -2 -3 -1
right_child=1 2 -4 -5
leaf_value=0.06125876200269656 -0.062676973231572133 0.030464398332561222 -0.046323593823085034 0
leaf_weight=12.021148324012753 10.504888102412226 4.8152211755514127 4.6524440795183182 1.7267663329839713
leaf_count=85 94 15 27 8
internal_value=0 -0.0384205 0 0.0563783
internal_weight=0 19.9726 9.46767 13.7479
internal_count=229 136 42 93
is_linear=0
shrinkage=0.1


Tree=52
num_leaves=6
num_cat=0
split_feature=1 3 2 2 1
split_gain=1.6127 0.343714 0.550536 0.364391 0.543162
threshold=16.350000000000005 3812.5000000000005 186.50000000000003 197.50000000000003 18.050000000000004
decision_type=10 10 10 8 10
left_child=-1 2 -2 -3 -5
right_child=1 3 -4 4 -6
leaf_value=-0.043163251135306467 0 -0.021480956031244954 0.035252662066423607 0 0.037573246304039035
leaf_weight=5.2901059128344086 1.9783384278416658 3.7487934306263897 9.7428359165787679 2.0268017351627359 3.8764272779226303
leaf_count=82 24 30 63 11 19
internal_value=0 0.0140367 0.0248337 0 0.0145063
internal_weight=0 21.3732 11.7212 9.65202 5.90323
internal_count=229 147 87 60 30
is_linear=0
shrinkage=0.1


Tree=53
num_leaves=3
num_cat=0
split_feature=2 1
split_gain=8.33634 2.80359
threshold=202.50000000000003 17.950000000000003
decision_type=8 10
left_child=-1 -2
right_child=1 -3
leaf_value=-0.059722017703628741 0.063302919054684284 -0.027577533502100394
leaf_weight=12.847439341247084 13.895209088921545 2.051155060529708
leaf_count=136 84 9
internal_value=0 0.0447746
internal_weight=0 15.9464
internal_count=229 93
is_linear=0
shrinkage=0.1


Tree=54
num_leaves=5
num_cat=0
split_feature=2 3 1 2
split_gain=3.29124 0.662488 0.398393 0.0137915
threshold=199.50000000000003 4062.5000000000005 17.550000000000004 186.50000000000003
decision_type=10 10 10 8
left_child=2 -2 3 -1
right_child=1 -3 -4 -5
leaf_value=0.0068141543928084474 0 -0.05202326808866059 0.035144351911084018 0
leaf_weight=1.9702051728963912 2.6126904264092436 8.7221015915274602 12.933089792728422 5.5152393653988838
leaf_count=14 14 88 82 31
internal_value=0 -0.0399509 0.0248488 0
internal_weight=0 11.3348 20.4185 7.48544
internal_count=229 102 127 45
is_linear=0
shrinkage=0.1


Tree=55
num_leaves=4
num_cat=0
split_feature=0 1 0
split_gain=2.36396 2.93979 0.347892
threshold=42.250000000000007 16.350000000000005 46.150000000000013
decision_type=10 10 10
left_child=-1 -2 -3
right_child=1 2 -4
leaf_value=-0.047029939785966042 -0.037602251744099605 0.0003971819791785885 0.056470473789619086
leaf_weight=6.3694947399199036 4.2657847180962589 5.6465308219194403 9.2762272506952268
leaf_count=95 73 21 40
internal_value=0 0.0190671 0.042891
internal_weight=0 19.1885 14.9228
internal_count=229 134 61
is_linear=0
shrinkage=0.1


Tree=56
num_leaves=3
num_cat=0
split_feature=2 1
split_gain=7.17523 2.57819
threshold=202.50000000000003 17.350000000000005
decision_type=8 8
left_child=-1 -2
right_child=1 -3
leaf_value=-0.058303610420392254 0.063502069697339542 -0.017165927759670813
leaf_weight=11.806665524840357 12.118172079324719 2.7368961349129686
leaf_count=136 82 11
internal_value=0 0.0421874
internal_weight=0 14.8551
internal_count=229 93
is_linear=0
shrinkage=0.1


Tree=57
num_leaves=5
num_cat=0
split_feature=0 1 0 3
split_gain=6.22303 1.18244 1.389 0.285819
threshold=42.250000000000007 17.550000000000004 46.250000000000007 4325.0000000000009
decision_type=8 8 10 8
left_child=3 -2 -3 -1
right_child=1 2 -4 -5
leaf_value=0.059115398438683575 -0.059916529446242033 0.026148345518060501 -0.043305771894787647 0
leaf_weight=10.777263231575489 8.9598177596926707 4.7819491773843747 4.2984820976853371 1.3868238627910621
leaf_count=85 94 15 27 8
internal_value=0 -0.0354525 0 0.0539384
internal_weight=0 18.0402 9.08043 12.1641
internal_count=229 136 42 93
is_linear=0
shrinkage=0.1


Tree=58
num_leaves=4
num_cat=0
split_feature=0 3 1
split_gain=2.1798 3.27254 1.01878
threshold=42.250000000000007 4062.5000000000005 18.350000000000005
decision_type=10 10 8
left_child=-1 -2 -3
right_child=1 2 -4
leaf_value=-0.045692606840507598 0.060731575803628403 -0.044086868442170607 0.0055701247809924774
leaf_weight=6.0149603597819832 9.2336455285549182 5.2586742974817726 4.0132180452346811
leaf_count=95 40 81 13
internal_value=0 0.0191486 -0.0144084
internal_weight=0 18.5055 9.27189
internal_count=229 134 94
is_linear=0
shrinkage=0.1


Tree=59
num_leaves=4
num_cat=0
split_feature=2 3 0
split_gain=6.28291 0.739085 0.142497
threshold=202.50000000000003 4325.0000000000009 51.850000000000009
decision_type=8 10 8
left_child=-1 -2 -3
right_child=1 2 -4
leaf_value=-0.057041999655438297 0 0.057204586074840684 0
leaf_weight=10.989394817501308 2.9309092015027991 8.9725826755166018 2.0052272379398355
leaf_count=136 13 71 9
internal_value=0 0.0399699 0.0510447
internal_weight=0 13.9087 10.9778
internal_count=229 93 80
is_linear=0
shrinkage=0.1


Tree=60
num_leaves=5
num_cat=0
split_feature=0 0 3 2
split_gain=5.29755 0.815616 0.256129 0.101131
threshold=42.250000000000007 46.150000000000013 4325.0000000000009 197.50000000000003
decision_type=8 10 8 10
left_child=2 3 -1 -2
right_child=1 -3 -4 -5
leaf_value=0.05719702645492545 0 -0.054852537688383156 0 -0.015268719651892788
leaf_weight=9.8521474823355675 5.3323497474193591 8.3692174255847913 1.3375277891755111 3.3378954529762268
leaf_count=85 18 86 8 32
internal_value=0 -0.0333251 0.0519847 0
internal_weight=0 17.0395 11.1897 8.67025
internal_count=229 136 93 50
is_linear=0
shrinkage=0.1


Tree=61
num_leaves=5
num_cat=0
split_feature=0 3 0 3
split_gain=1.84363 2.77864 0.744459 0.518084
threshold=42.250000000000007 4062.5000000000005 48.650000000000013 4962.5000000000009
decision_type=10 10 8 10
left_child=-1 -2 -3 -4
right_child=1 2 3 -5
leaf_value=-0.043621124089285493 0.057416422343872266 -0.03908375453857079 0.038988777495061584 -0.0084461664752085216
leaf_weight=5.5218198187649277 8.7714056074619311 4.91713039204478 2.2864923104643835 1.6785796135663984
leaf_count=95 40 63 9 22
internal_value=0 0.0179744 -0.012725 0.00111027
internal_weight=0 17.6536 8.8822 3.96507
internal_count=229 134 94 31
is_linear=0
shrinkage=0.1


Tree=62
num_leaves=4
num_cat=0
split_feature=1 2 2
split_gain=5.58306 1.32133 0.8543
threshold=16.550000000000004 212.50000000000003 202.50000000000003
decision_type=10 8 10
left_child=2 -2 -1
right_child=1 -3 -4
leaf_value=0 -0.059634886461406834 0 0.057733927439189141
leaf_weight=1.5383580252528215 11.193161733448502 1.1362295150756843 9.2676106765866262
leaf_count=11 136 5 77
internal_value=0 -0.0475592 0.0466397
internal_weight=0 12.3294 10.806
internal_count=229 141 88
is_linear=0
shrinkage=0.1


Tree=63
num_leaves=5
num_cat=0
split_feature=0 0 3 2
split_gain=4.51935 0.755876 0.228721 0.0681612
threshold=42.250000000000007 46.150000000000013 4325.0000000000009 197.50000000000003
decision_type=8 10 8 10
left_child=2 3 -1 -2
right_child=1 -3 -4 -5
leaf_value=0.055307834914291233 0 -0.052939093240500792 0 -0.012758419825559858
leaf_weight=9.0234969705343246 5.2804371267557162 7.698508843779563 1.2886104956269271 3.1873887032270432
leaf_count=85 18 86 8 32
internal_value=0 -0.0313014 0.050083 0
internal_weight=0 16.1663 10.3121 8.46783
internal_count=229 136 93 50
is_linear=0
shrinkage=0.1


Tree=64
num_leaves=4
num_cat=0
split_feature=0 2 0
split_gain=1.52262 1.91627 0.817447
threshold=42.250000000000007 212.50000000000003 46.150000000000013
decision_type=10 8 10
left_child=-1 2 -2
right_child=1 -3 -4
leaf_value=-0.041541859788338083 0 -0.03189907654347985 0.056865904360756392
leaf_weight=5.0833495892584351 5.9227577373385447 3.3793952614068976 7.5377668216824532
leaf_count=95 29 62 43
internal_value=0 0.0162795 0.0366601
internal_weight=0 16.8399 13.4605
internal_count=229 134 72
is_linear=0
shrinkage=0.1


Tree=65
num_leaves=4
num_cat=0
split_feature=1 2 3
split_gain=4.8971 1.75288 0.011895
threshold=17.150000000000002 202.50000000000003 3762.5000000000005
decision_type=10 10 8
left_child=1 2 -1
right_child=-2 -3 -4
leaf_value=-0.0092542390293056925 -0.054180993580732931 0.058387224251102855 0
leaf_weight=1.7826979160308867 9.3669732138514501 9.5446178764104825 0.87782844901084889
leaf_count=25 119 81 4
internal_value=0 0.0374678 -0.00571034
internal_weight=0 12.2051 2.66053
internal_count=229 110 29
is_linear=0
shrinkage=0.1


Tree=66
num_leaves=5
num_cat=0
split_feature=0 1 0 3
split_gain=3.87591 1.13218 0.886978 0.20272
threshold=42.250000000000007 17.550000000000004 46.250000000000007 4325.0000000000009
decision_type=8 8 10 8
left_child=3 -2 -3 -1
right_child=1 2 -4 -5
leaf_value=0.053513760016942573 -0.055637136618602617 0.023780108398647696 -0.035530405374939143 0
leaf_weight=8.3095712959766388 7.2210086360573742 4.6902938336133957 3.477118007838726 1.2427685260772712
leaf_count=85 94 15 27 8
internal_value=0 -0.0293592 0 0.0483151
internal_weight=0 15.3884 8.16741 9.55234
internal_count=229 136 42 93
is_linear=0
shrinkage=0.1


Tree=67
num_leaves=6
num_cat=0
split_feature=1 3 2 2 1
split_gain=0.667017 0.315971 0.345703 0.0852052 0.289035
threshold=16.350000000000005 3962.5000000000005 186.50000000000003 199.50000000000003 18.450000000000003
decision_type=10 10 10 10 10
left_child=-1 2 -2 -3 -5
right_child=1 3 -4 4 -6
leaf_value=-0.03245368790300307 0 -0.014353886251326635 0.029689304046594884 0 0.028438830821448598
leaf_weight=3.6085652597248581 1.49390244483948 3.1004752144217482 8.5671176761388761 1.4474694728851316 2.5826963931322098
leaf_count=82 27 24 74 9 13
internal_value=0 0.00999196 0.02121 0 0.00119757
internal_weight=0 17.1917 10.061 7.13064 4.03017
internal_count=229 147 101 46 22
is_linear=0
shrinkage=0.1


Tree=68
num_leaves=4
num_cat=0
split_feature=2 3 0
split_gain=4.23957 0.495936 0.11502
threshold=202.50000000000003 4325.0000000000009 51.850000000000009
decision_type=8 10 8
left_child=-1 -2 -3
right_child=1 2 -4
leaf_value=-0.052665493043478534 0 0.051817858761422059 0
leaf_weight=8.6105448566377181 2.6532660275697699 7.137128867208955 1.8054145649075515
leaf_count=136 13 71 9
internal_value=0 0.0353493 0.0456271
internal_weight=0 11.5958 8.94254
internal_count=229 93 80
is_linear=0
shrinkage=0.1


Tree=69
num_leaves=5
num_cat=0
split_feature=0 1 0 2
split_gain=3.43279 1.02376 0.781625 0.301873
threshold=42.250000000000007 17.550000000000004 46.150000000000013 201.50000000000003
decision_type=8 8 8 10
left_child=3 -2 -3 -1
right_child=1 2 -4 -5
leaf_value=0.052629460409277289 -0.053925870085266059 0.026165757160311866 -0.029617167061062266 0
leaf_weight=8.0784705206751823 6.7160097472369644 3.9157705307006845 4.073878638446331 0.93438562750816423
leaf_count=88 94 13 29 5
internal_value=0 -0.0278716 0 0.0470095
internal_weight=0 14.7057 7.98965 9.01286
internal_count=229 136 42 93
is_linear=0
shrinkage=0.1


Tree=70
num_leaves=6
num_cat=0
split_feature=3 1 2 2 3
split_gain=0.565556 0.732473 0.306937 0.262364 0.00400953
threshold=3962.5000000000005 18.450000000000003 186.50000000000003 199.50000000000003 3812.5000000000005
decision_type=8 10 10 10 8
left_child=2 -2 -1 -3 -4
right_child=1 3 4 -5 -6
leaf_value=0 -0.040446472265795404 -0.0048880036291152756 0.027380028157153832 0.026843714481326976 0
leaf_weight=1.5586973428726221 4.9707102440297586 2.5613424144685268 7.4333141855895493 2.5229077562689781 1.056675303727389
leaf_count=30 91 18 65 13 12
internal_value=0 -0.0148652 0.0170522 0 0.0257287
internal_weight=0 10.055 10.0487 5.08425 8.48999
internal_count=229 122 107 31 77
is_linear=0
shrinkage=0.1


Tree=71
num_leaves=4
num_cat=0
split_feature=1 2 2
split_gain=3.87948 1.41065 0.0091602
threshold=17.150000000000002 202.50000000000003 177.00000000000003
decision_type=10 10 10
left_child=1 2 -1
right_child=-2 -3 -4
leaf_value=0 -0.051342295509318785 0.05541773097816384 -0.0059788833653519223
leaf_weight=0.77706098556518854 8.1825835071504098 8.3426813110709173 1.652594421058893
leaf_count=3 119 81 26
internal_value=0 0.0352034 -0.000969015
internal_weight=0 10.7723 2.42966
internal_count=229 110 29
is_linear=0
shrinkage=0.1


Tree=72
num_leaves=5
num_cat=0
split_feature=0 1 0 3
split_gain=3.04857 0.910901 0.525217 0.284444
threshold=42.250000000000007 17.950000000000003 46.150000000000013 4425.0000000000009
decision_type=8 8 8 8
left_child=3 -2 -3 -1
right_child=1 2 -4 -5
leaf_value=0.051505132275441817 -0.049149010560395105 0.024549841967802945 -0.0238641344609061 0
leaf_weight=7.615240491926671 7.1075606383383247 3.4417346119880685 3.5218116715550423 0.91786497831344682
leaf_count=87 100 11 25 6
internal_value=0 -0.0263646 0 0.0458147
internal_weight=0 14.0711 6.96355 8.53311
internal_count=229 136 36 93
is_linear=0
shrinkage=0.1


Tree=73
num_leaves=5
num_cat=0
split_feature=0 3 0 1
split_gain=1.0977 1.83343 0.720924 0.502816
threshold=42.250000000000007 3962.5000000000005 48.650000000000013 18.050000000000004
decision_type=10 8 8 10
left_child=-1 -2 -3 -4
right_child=1 2 3 -5
leaf_value=-0.037688950119829312 0.053257114346126525 -0.036878434032231927 -0.0011458866229928208 0.03832437120848653
leaf_weight=4.3936848528683212 6.4637992605566952 4.4787685591727486 1.4290302768349654 2.5833451449871063
leaf_count=95 35 64 24 11
internal_value=0 0.0144155 -0.00711214 0.00689215
internal_weight=0 14.9549 8.49114 4.01238
internal_count=229 134 99 35
is_linear=0
shrinkage=0.1


Tree=74
num_leaves=4
num_cat=0
split_feature=1 3 0
split_gain=3.34218 1.28362 0.00346418
threshold=17.150000000000002 3925.0000000000005 47.600000000000009
decision_type=10 10 8
left_child=1 2 -1
right_child=-2 -3 -4
leaf_value=-0.0036760416018698826 -0.049733300541557418 0.053490360843027357 0
leaf_weight=1.5640790723264237 7.656186342239379 7.6843539476394653 0.80478063225746144
leaf_count=26 119 81 3
internal_value=0 0.0329653 -4.66229e-05
internal_weight=0 10.0532 2.36886
internal_count=229 110 29
is_linear=0
shrinkage=0.1


Tree=75
num_leaves=6
num_cat=0
split_feature=0 0 3 3 2
split_gain=2.59985 0.583113 0.256716 0.170889 0.289948
threshold=42.250000000000007 46.150000000000013 4425.0000000000009 3962.5000000000005 210.50000000000003
decision_type=8 10 10 8 8
left_child=2 3 -1 -2 -5
right_child=1 -3 -4 4 -6
leaf_value=0.049749229876141735 -0.020668311875927336 -0.046208819001651184 0 0.027164864337359318 0
leaf_weight=7.0449265837669399 2.5549920052289945 5.7840738222002983 0.88686883449554432 3.1870544478297234 1.8723110407590864
leaf_count=87 11 86 6 16 23
internal_value=0 -0.0245169 0.0440661 0 0.00560365
internal_weight=0 13.3984 7.9318 7.61436 5.05937
internal_count=229 136 93 50 39
is_linear=0
shrinkage=0.1


Tree=76
num_leaves=5
num_cat=0
split_feature=0 3 0 3
split_gain=0.915773 1.59708 0.618329 0.38996
threshold=42.250000000000007 3962.5000000000005 48.650000000000013 4962.5000000000009
decision_type=10 8 8 10
left_child=-1 -2 -3 -4
right_child=1 2 3 -5
leaf_value=-0.03556021580544045 0.050653307047393716 -0.034762077368539673 0.033722707118727567 0
leaf_weight=4.0716725867241648 6.1538133919239018 4.2943162415176621 2.5573923364281668 1.2988914512097833
leaf_count=95 35 64 13 22
internal_value=0 0.0133912 -0.00627497 0.0054819
internal_weight=0 14.3044 8.1506 3.85628
internal_count=229 134 99 35
is_linear=0
shrinkage=0.1


Tree=77
num_leaves=4
num_cat=0
split_feature=1 2 2
split_gain=2.88864 1.17059 0.00164263
threshold=17.150000000000002 202.50000000000003 177.00000000000003
decision_type=10 10 10
left_child=1 2 -1
right_child=-2 -3 -4
leaf_value=0 -0.047977165353555902 0.051789757960233551 -0.0025514458667969912
leaf_weight=0.77870099991560193 7.1433248557150355 7.1455893516540527 1.5232877023518083
leaf_count=3 119 81 26
internal_value=0 0.031157 0
internal_weight=0 9.44758 2.30199
internal_count=229 110 29
is_linear=0
shrinkage=0.1


Tree=78
num_leaves=6
num_cat=0
split_feature=0 0 2 3 2
split_gain=2.23978 0.506347 0.239589 0.124211 0.241514
threshold=42.250000000000007 46.150000000000013 201.50000000000003 3962.5000000000005 210.50000000000003
decision_type=8 10 10 8 8
left_child=2 3 -1 -2 -5
right_child=1 -3 -4 4 -6
leaf_value=0.048010859813433643 -0.018047081074916649 -0.044203641827607658 0 0.024659122247523993 0
leaf_weight=6.5683845095336464 2.4898963421583158 5.3520624004304409 0.82287908345460881 3.1452329680323601 1.8316866047680376
leaf_count=88 11 86 5 16 23
internal_value=0 -0.0230598 0.0423495 0 0.00420063
internal_weight=0 12.8189 7.39126 7.46682 4.97692
internal_count=229 136 93 50 39
is_linear=0
shrinkage=0.1


Tree=79
num_leaves=5
num_cat=0
split_feature=3 1 2 2
split_gain=0.33814 0.506502 0.202789 0.131852
threshold=3962.5000000000005 18.450000000000003 186.50000000000003 199.50000000000003
decision_type=8 10 10 10
left_child=2 -2 -1 -3
right_child=1 3 -4 -5
leaf_value=0 -0.035431640732437708 -8.8252330637792002e-05 0.021864619761700625 0.02012954658352311
leaf_weight=1.2728123404085652 4.1546359285712224 2.3995426055043936 7.3737547621130943 2.2539490349590778
leaf_count=30 91 18 77 13
internal_value=0 -0.0119734 0.0143096 0
internal_weight=0 8.80813 8.64657 4.65349
internal_count=229 122 107 31
is_linear=0
shrinkage=0.1


Tree=80
num_leaves=4
num_cat=0
split_feature=1 2 1
split_gain=2.52466 1.07212 0.000818575
threshold=17.150000000000002 202.50000000000003 17.150000000000002
decision_type=10 10 8
left_child=1 2 -1
right_child=-2 -3 -4
leaf_value=-0.0018097540863342778 -0.046159874999270947 0.05035391481224101 0
leaf_weight=1.4993057698011383 6.683923728764058 6.7283654734492302 0.73780643939971913
leaf_count=27 119 81 2
internal_value=0 0.0298411 0
internal_weight=0 8.96548 2.23711
internal_count=229 110 29
is_linear=0
shrinkage=0.1


Tree=81
num_leaves=6
num_cat=0
split_feature=0 0 3 3 2
split_gain=2.01007 0.449533 0.218565 0.101274 0.212171
threshold=42.250000000000007 46.150000000000013 4425.0000000000009 3962.5000000000005 210.50000000000003
decision_type=8 10 10 8 8
left_child=2 3 -1 -2 -5
right_child=1 -3 -4 4 -6
leaf_value=0.046849510727342253 -0.016535700695591397 -0.042592123382431402 0 0.023093639182981716 0
leaf_weight=6.2171817682683495 2.450473412871359 5.0310586281120777 0.81793852895498265 3.1082435771822929 1.7939775399863718
leaf_count=87 11 86 6 16 23
internal_value=0 -0.0219453 0.0412242 0 0.0034261
internal_weight=0 12.3838 7.03512 7.35269 4.90222
internal_count=229 136 93 50 39
is_linear=0
shrinkage=0.1


Tree=82
num_leaves=6
num_cat=0
split_feature=3 1 2 2 3
split_gain=0.27942 0.431126 0.177617 0.102189 0.000692036
threshold=3962.5000000000005 18.450000000000003 186.50000000000003 199.50000000000003 3812.5000000000005
decision_type=8 10 10 10 10
left_child=2 -2 -1 -3 -4
right_child=1 3 4 -5 -6
leaf_value=0 -0.033406020244983022 0 0.021687355731177235 0.017916865895034977 0
leaf_weight=1.2205921746790425 3.8988653700798732 2.3671046644449234 6.2747275065630674 2.1833264902234077 0.88941693678498257
leaf_count=30 91 18 65 13 12
internal_value=0 -0.0110591 0.0132134 0 0.0204513
internal_weight=0 8.4493 8.38474 4.55043 7.16414
internal_count=229 122 107 31 77
is_linear=0
shrinkage=0.1


Tree=83
num_leaves=4
num_cat=0
split_feature=1 2 2
split_gain=2.21982 0.77642 0.423257
threshold=16.550000000000004 218.50000000000003 202.50000000000003
decision_type=10 10 10
left_child=2 -2 -1
right_child=1 -3 -4
leaf_value=0 -0.050418820017706228 0 0.045825646850801809
leaf_weight=1.3004808537662027 6.9859039504081011 0.89159138500690449 5.6163855344057083
leaf_count=11 136 5 77
internal_value=0 -0.0375787 0.0349343
internal_weight=0 7.8775 6.91687
internal_count=229 141 88
is_linear=0
shrinkage=0.1


Tree=84
num_leaves=4
num_cat=0
split_feature=2 3 1
split_gain=0.740637 0.230543 0.227584
threshold=199.50000000000003 4025.0000000000005 17.550000000000004
decision_type=10 10 10
left_child=2 -2 -1
right_child=1 -3 -4
leaf_value=0 0 -0.034023064218530401 0.024775065969475332
leaf_weight=4.7037852704525012 1.448708951473235 4.651832390576601 7.8713408932089806
leaf_count=45 10 92 82
internal_value=0 -0.0244276 0.0152798
internal_weight=0 6.10054 12.5751
internal_count=229 102 127
is_linear=0
shrinkage=0.1


Tree=85
num_leaves=5
num_cat=0
split_feature=0 3 0 1
split_gain=0.638751 1.12989 0.410502 0.264822
threshold=42.250000000000007 3962.5000000000005 48.650000000000013 18.050000000000004
decision_type=10 8 10 10
left_child=-1 -2 -3 -4
right_child=1 2 3 -5
leaf_value=-0.031575596951527375 0.044784680887298374 -0.029509461552803342 0 0.028752395474508793
leaf_weight=3.5548779219388988 5.4930738359689686 3.8244530651718387 1.1597501467913391 2.2347815111279488
leaf_count=95 35 64 24 11
internal_value=0 0.0116035 -0.00385477 0.00243136
internal_weight=0 12.7121 7.21898 3.39453
internal_count=229 134 99 35
is_linear=0
shrinkage=0.1


Tree=86
num_leaves=4
num_cat=0
split_feature=1 3 3
split_gain=1.94255 0.887321 0.00982405
threshold=17.150000000000002 3925.0000000000005 4775.0000000000009
decision_type=10 10 10
left_child=1 -1 -2
right_child=2 -3 -4
leaf_value=0 -0.044572320003345801 0.047362460968156453 0
leaf_weight=2.1045676656067354 5.4366303272545347 5.9585324488580227 0.48417605459690083
leaf_count=29 117 81 2
internal_value=0 0.0272627 -0.0428195
internal_weight=0 8.0631 5.92081
internal_count=229 110 119
is_linear=0
shrinkage=0.1


Tree=87
num_leaves=6
num_cat=0
split_feature=0 0 3 3 3
split_gain=1.66004 0.36297 0.179731 0.0682558 0.082185
threshold=42.250000000000007 46.150000000000013 4425.0000000000009 3962.5000000000005 4712.5000000000009
decision_type=8 10 10 8 8
left_child=2 3 -1 -2 -5
right_child=1 -3 -4 4 -6
leaf_value=0.04456521388521506 -0.013926495969758885 -0.039859916040141413 0 0.014060323293919819 0
leaf_weight=5.6546095535159138 2.3808222040534002 4.5456279572099447 0.75382229685783375 3.2930617220699787 1.4054587371647356
leaf_count=87 11 86 6 23 16
internal_value=0 -0.0202583 0.0392603 0 0.00217092
internal_weight=0 11.625 6.40843 7.07934 4.69852
internal_count=229 136 93 50 39
is_linear=0
shrinkage=0.1


Tree=88
num_leaves=6
num_cat=0
split_feature=0 1 3 0 3
split_gain=0.585822 0.73494 0.574523 0.158887 0.0180996
threshold=45.95000000000001 17.250000000000004 3625.0000000000005 42.250000000000007 4325.0000000000009
decision_type=10 10 8 10 10
left_child=2 4 3 -1 -2
right_child=1 -3 -4 -5 -6
leaf_value=-0.0047980641356089046 0 0.041874041677699148 -0.039019151981389028 0.021406028697080977 -0.008104791467634485
leaf_weight=1.6464599613100266 0.47040256857872131 5.1412652060389519 4.3757439386099586 2.3345264047384262 1.7554112523794172
leaf_count=45 4 33 85 9 53
internal_value=0 0.0202142 -0.0161462 0 0
internal_weight=0 7.36708 8.35673 3.98099 2.22581
internal_count=229 90 139 54 57
is_linear=0
shrinkage=0.1


Tree=89
num_leaves=3
num_cat=0
split_feature=2 2
split_gain=1.73507 0.192443
threshold=204.00000000000003 212.50000000000003
decision_type=8 10
left_child=-1 -2
right_child=1 -3
leaf_value=-0.041657745051026901 0 0.038537627424448995
leaf_weight=5.6531173679977647 3.4388584680855283 4.2045278623700142
leaf_count=139 27 63
internal_value=0 0.0259156
internal_weight=0 7.64339
internal_count=229 90
is_linear=0
shrinkage=0.1


Tree=90
num_leaves=6
num_cat=0
split_feature=0 0 2 3 3
split_gain=1.43639 0.309175 0.169514 0.0567158 0.0697013
threshold=42.250000000000007 46.150000000000013 201.50000000000003 3962.5000000000005 4712.5000000000009
decision_type=8 10 10 8 8
left_child=2 3 -1 -2 -5
right_child=1 -3 -4 4 -6
leaf_value=0.042840560242222929 -0.01285528690873048 -0.037965860858533734 0 0.012904312380941009 0
leaf_weight=5.3037210032343891 2.3591112419962865 4.2597750369459391 0.71958164870738972 3.258013017475605 1.3849952854216097
leaf_count=88 11 86 5 23 16
internal_value=0 -0.0191351 0.0374955 0 0.00146047
internal_weight=0 11.2619 6.0233 7.00212 4.64301
internal_count=229 136 93 50 39
is_linear=0
shrinkage=0.1


Tree=91
num_leaves=5
num_cat=0
split_feature=3 1 2 1
split_gain=0.177407 0.29299 0.127912 0.013882
threshold=3962.5000000000005 18.450000000000003 186.50000000000003 18.350000000000005
decision_type=8 10 10 10
left_child=2 -2 -1 -4
right_child=1 -3 3 -5
leaf_value=0 -0.028998677586653223 0 0.021673169398337366 0
leaf_weight=1.0619087014347304 3.3709603510797033 4.1984062865376472 4.2078605238348246 2.2685601729899645
leaf_count=30 91 31 45 32
internal_value=0 -0.00932868 0.0109744 0.0175679
internal_weight=0 7.56937 7.53833 6.47642
internal_count=229 122 107 77
is_linear=0
shrinkage=0.1


Tree=92
num_leaves=4
num_cat=0
split_feature=1 2 2
split_gain=1.54991 0.748232 0.198046
threshold=16.350000000000005 218.50000000000003 202.50000000000003
decision_type=10 10 10
left_child=2 -2 -1
right_child=1 -3 -4
leaf_value=0 -0.047254673967629543 0 0.040450810180481696
leaf_weight=1.0325286090373991 6.0901358332484961 0.9987010434269904 4.5794847272336483
leaf_count=7 140 7 75
internal_value=0 -0.0321292 0.032882
internal_weight=0 7.08884 5.61201
internal_count=229 147 82
is_linear=0
shrinkage=0.1


Tree=93
num_leaves=4
num_cat=0
split_feature=2 3 1
split_gain=0.469181 0.189255 0.161391
threshold=199.50000000000003 4025.0000000000005 17.550000000000004
decision_type=8 10 10
left_child=2 -2 -1
right_child=1 -3 -4
leaf_value=0 0 -0.029700472691116045 0.021659199007667357
leaf_weight=3.55203375965357 2.1006667390465728 4.0180303938686848 7.0400795005261898
leaf_count=43 12 92 82
internal_value=0 -0.0188668 0.0136437
internal_weight=0 6.1187 10.5921
internal_count=229 104 125
is_linear=0
shrinkage=0.1


Tree=94
num_leaves=5
num_cat=0
split_feature=0 2 1 2
split_gain=0.445342 0.620334 0.193254 0.0570769
threshold=45.95000000000001 212.50000000000003 17.350000000000005 201.50000000000003
decision_type=10 10 8 10
left_child=2 -2 -1 -4
right_child=1 -3 3 -5
leaf_value=0 0.036901754950381574 0 -0.029773627857011029 0
leaf_weight=3.0828066719695926 5.4323012009263039 1.3772312197834251 3.964578116312623 0.81340887397527684
leaf_count=61 46 44 73 5
internal_value=0 0.0180904 -0.0146343 -0.0257467
internal_weight=0 6.80953 7.86079 4.77799
internal_count=229 90 139 78
is_linear=0
shrinkage=0.1


Tree=95
num_leaves=3
num_cat=0
split_feature=2 2
split_gain=1.34167 0.149271
threshold=204.00000000000003 210.50000000000003
decision_type=8 10
left_child=-1 -2
right_child=1 -3
leaf_value=-0.038398278285615872 0 0.034296932922368725
leaf_weight=4.9671866595745078 2.925885323435069 4.1954091675579548
leaf_count=139 21 69
internal_value=0 0.0238473
internal_weight=0 7.12129
internal_count=229 90
is_linear=0
shrinkage=0.1


Tree=96
num_leaves=4
num_cat=0
split_feature=1 2 2
split_gain=0.387405 0.254585 0.116546
threshold=17.350000000000005 186.50000000000003 199.50000000000003
decision_type=10 10 8
left_child=1 -1 -2
right_child=2 -3 -4
leaf_value=0 0.019575650525315614 -0.0267079969972847 0
leaf_weight=1.5892488583922411 7.1237388029694531 5.2697158716619015 2.2957698330283174
leaf_count=15 87 107 20
internal_value=0 -0.0156566 0.0136718
internal_weight=0 6.85896 9.41951
internal_count=229 122 107
is_linear=0
shrinkage=0.1


Tree=97
num_leaves=5
num_cat=0
split_feature=0 2 0 1
split_gain=0.400244 0.464637 0.293018 0.0160899
threshold=42.250000000000007 212.50000000000003 46.150000000000013 18.250000000000004
decision_type=10 8 10 10
left_child=-1 2 3 -2
right_child=1 -3 -4 -5
leaf_value=-0.026592015035059022 0.0065729770778757482 -0.008534687259245893 0.039280711738783822 0
leaf_weight=3.0336169991642246 2.724161965772506 1.7851752061396844 4.524267515167594 2.2947478890419006
leaf_count=95 20 62 43 9
internal_value=0 0.00965872 0.0230335 0
internal_weight=0 11.3284 9.54318 5.01891
internal_count=229 134 72 29
is_linear=0
shrinkage=0.1


Tree=98
num_leaves=4
num_cat=0
split_feature=1 3 1
split_gain=1.2685 0.633881 0.00669878
threshold=17.150000000000002 3925.0000000000005 17.350000000000005
decision_type=10 10 10
left_child=1 -1 -2
right_child=2 -3 -4
leaf_value=0 0 0.042595749209059425 -0.039498337154317747
leaf_weight=1.8765898030251262 0.51662922278046597 4.9614574946463108 4.3036904260516167
leaf_count=29 12 81 107
internal_value=0 0.0239013 -0.0375517
internal_weight=0 6.83805 4.82032
internal_count=229 110 119
is_linear=0
shrinkage=0.1


Tree=99
num_leaves=6
num_cat=0
split_feature=0 1 1 0 0
split_gain=1.12085 0.496842 0.25643 0.118752 0.0119475
threshold=42.250000000000007 17.950000000000003 15.350000000000003 45.95000000000001 46.250000000000007
decision_type=8 8 10 8 10
left_child=2 -2 -1 -3 -5
right_child=1 3 -4 4 -6
leaf_value=0 -0.038594589972419838 0.016027331018729891 0.041433853131349424 0 -0.012064917126563513
leaf_weight=0.34978725016116996 4.6505237445235243 2.4532581865787515 5.0139568373560905 1.4983411431312563 1.8849603645503519
leaf_count=2 100 9 91 4 23
internal_value=0 -0.0173259 0.0349206 0 -0.00827937
internal_weight=0 10.4871 5.36374 5.83656 3.3833
internal_count=229 136 93 36 27
is_linear=0
shrinkage=0.1


Tree=100
num_leaves=5
num_cat=0
split_feature=3 1 2 1
split_gain=0.138891 0.213728 0.104052 0.00388701
threshold=3962.5000000000005 18.450000000000003 186.50000000000003 18.850000000000005
decision_type=8 10 10 10
left_child=2 -2 -1 -4
right_child=1 -3 3 -5
leaf_value=0 -0.026006885623724826 0 0.018471257209576684 0
leaf_weight=0.96124325506389041 3.0495501626282939 3.9422533996403217 4.4709800910204649 1.5813173744827507
leaf_count=30 91 31 55 22
internal_value=0 -0.00867674 0.00991157 0.0160988
internal_weight=0 6.9918 7.01354 6.0523
internal_count=229 122 107 77
is_linear=0
shrinkage=0.1


Tree=101
num_leaves=4
num_cat=0
split_feature=1 2 0
split_gain=1.10294 0.606071 0.154966
threshold=16.350000000000005 218.50000000000003 40.850000000000001
decision_type=10 10 10
left_child=2 -2 -1
right_child=1 -3 -4
leaf_value=0 -0.043780180141147727 0 0.036389319931702267
leaf_weight=1.0149660184979437 5.2813834249973297 0.90988530963659275 3.9843447357416153
leaf_count=7 140 7 75
internal_value=0 -0.0288341 0.0290147
internal_weight=0 6.19127 4.99931
internal_count=229 147 82
is_linear=0
shrinkage=0.1


Tree=102
num_leaves=6
num_cat=0
split_feature=0 1 1 0 0
split_gain=0.991477 0.436246 0.204966 0.104027 0.0104722
threshold=42.250000000000007 17.950000000000003 15.850000000000003 45.95000000000001 46.250000000000007
decision_type=8 8 10 8 10
left_child=2 -2 -1 -3 -5
right_child=1 3 -4 4 -6
leaf_value=0 -0.036897770953761774 0.014849585730859314 0.039649451218005949 0 -0.01162700299773522
leaf_weight=0.42312463372945686 4.4288469459861508 2.4359105229377755 4.6840756572782993 1.4983294010162356 1.8652299270033834
leaf_count=3 100 9 90 4 23
internal_value=0 -0.0164235 0.033579 0 -0.00804787
internal_weight=0 10.2283 5.1072 5.79947 3.36356
internal_count=229 136 93 36 27
is_linear=0
shrinkage=0.1


Tree=103
num_leaves=4
num_cat=0
split_feature=3 1 2
split_gain=0.115772 0.188811 0.0926716
threshold=3962.5000000000005 18.450000000000003 186.50000000000003
decision_type=8 10 10
left_child=2 -2 -1
right_child=1 -3 -4
leaf_value=0 -0.024625795333333204 0 0.015167995104107488
leaf_weight=0.92584172822534938 2.9332461208105096 3.8885391652584076 5.8992795366793871
leaf_count=30 91 31 77
internal_value=0 -0.00797227 0.00918797
internal_weight=0 6.82179 6.82512
internal_count=229 122 107
is_linear=0
shrinkage=0.1


Tree=104
num_leaves=4
num_cat=0
split_feature=1 2 1
split_gain=0.966375 0.532673 0.00221505
threshold=17.150000000000002 202.50000000000003 17.350000000000005
decision_type=10 10 10
left_child=1 -1 -2
right_child=2 -3 -4
leaf_value=0 0 0.039675564372391246 -0.036267091344658019
leaf_weight=1.8143324106931684 0.49073698930442322 4.4702212624251842 3.8670795317739248
leaf_count=29 12 81 107
internal_value=0 0.0212332 -0.0345065
internal_weight=0 6.28455 4.35782
internal_count=229 110 119
is_linear=0
shrinkage=0.1


Tree=105
num_leaves=4
num_cat=0
split_feature=2 3 1
split_gain=0.250782 0.110729 0.0948084
threshold=199.50000000000003 4025.0000000000005 17.550000000000004
decision_type=8 10 10
left_child=2 -2 -1
right_child=1 -3 -4
leaf_value=0 0 -0.023590170734467536 0.01718502098413929
leaf_weight=3.2182694263756257 2.0178540088236341 3.3087193034589291 6.3322915956377983
leaf_count=43 12 92 82
internal_value=0 -0.0142822 0.0107415
internal_weight=0 5.32657 9.55056
internal_count=229 104 125
is_linear=0
shrinkage=0.1


Tree=106
num_leaves=4
num_cat=0
split_feature=3 1 2
split_gain=0.0942145 0.16253 0.0829053
threshold=3962.5000000000005 18.450000000000003 186.50000000000003
decision_type=8 10 10
left_child=2 -2 -1
right_child=1 -3 -4
leaf_value=0 -0.022956916177942672 0 0.014340474869458431
leaf_weight=0.89413652382790942 2.803126930259169 3.8407056592404842 5.76964146271348
leaf_count=30 91 31 77
internal_value=0 -0.00704173 0.00857193
internal_weight=0 6.64383 6.66378
internal_count=229 122 107
is_linear=0
shrinkage=0.1


Tree=107
num_leaves=3
num_cat=0
split_feature=1 3
split_gain=0.838697 0.481714
threshold=17.150000000000002 3925.0000000000005
decision_type=10 10
left_child=1 -1
right_child=-2 -3
leaf_value=0 -0.03322144215157187 0.037936272251282842
leaf_weight=1.7891384810209272 4.1710219355300069 4.2093130350112915
leaf_count=29 119 81
internal_value=0 0.0195685
internal_weight=0 5.99845
internal_count=229 110
is_linear=0
shrinkage=0.1


Tree=108
num_leaves=6
num_cat=0
split_feature=0 1 1 0 0
split_gain=0.862993 0.354329 0.209785 0.0858467 0.00679781
threshold=42.250000000000007 17.950000000000003 15.350000000000003 45.95000000000001 46.250000000000007
decision_type=8 8 10 8 10
left_child=2 -2 -1 -3 -5
right_child=1 3 -4 4 -6
leaf_value=0 -0.034434238054940385 0.01320546014116755 0.038639864045055511 0 -0.010849663187351406
leaf_weight=0.31607562303542991 4.0917375851422539 2.4018154889345178 4.5147317927330732 1.4983468651771548 1.8307470977306364
leaf_count=2 100 9 91 4 23
internal_value=0 -0.0151805 0.0324395 0 -0.00782752
internal_weight=0 9.82265 4.83081 5.73091 3.32909
internal_count=229 136 93 36 27
is_linear=0
shrinkage=0.1


Tree=109
num_leaves=5
num_cat=0
split_feature=0 2 3 0
split_gain=0.312525 0.430119 0.384477 0.0690959
threshold=45.95000000000001 212.50000000000003 3625.0000000000005 42.250000000000007
decision_type=10 10 8 10
left_child=2 -2 3 -1
right_child=1 -3 -4 -5
leaf_value=0 0.032599786909570695 0 -0.033059642722076052 0.014737235252277684
leaf_weight=1.372154923155904 4.8458041772246361 1.0903082313016055 3.6284376475960016 2.1814161390066147
leaf_count=45 46 44 85 9
internal_value=0 0.0166004 -0.0121801 0
internal_weight=0 5.93611 7.18201 3.55357
internal_count=229 90 139 54
is_linear=0
shrinkage=0.1


Tree=110
num_leaves=4
num_cat=0
split_feature=1 2 0
split_gain=0.747959 0.483951 0.10883
threshold=16.350000000000005 218.50000000000003 40.850000000000001
decision_type=10 10 10
left_child=2 -2 -1
right_child=1 -3 -4
leaf_value=0 -0.040453357028027555 0 0.030963392982869958
leaf_weight=0.9977051019668578 4.6464484930038452 0.81383077800273884 3.3465047180652618
leaf_count=7 140 7 75
internal_value=0 -0.0260998 0.0240022
internal_weight=0 5.46028 4.34421
internal_count=229 147 82
is_linear=0
shrinkage=0.1


Tree=111
num_leaves=5
num_cat=0
split_feature=0 1 1 0
split_gain=0.739978 0.318687 0.193267 0.0658436
threshold=42.250000000000007 17.950000000000003 15.350000000000003 46.150000000000013
decision_type=8 8 10 8
left_child=2 -2 -1 -3
right_child=1 3 -4 -5
leaf_value=0 -0.032858236499199327 0.01001085042876533 0.037028614530995603 -0.0083485349949864486
leaf_weight=0.30880822241306205 3.9148673368617883 3.1236407011747369 4.2606092058122158 2.5176987275481224
leaf_count=2 100 11 91 25
internal_value=0 -0.0141699 0.0307909 0
internal_weight=0 9.55621 4.56942 5.64134
internal_count=229 136 93 36
is_linear=0
shrinkage=0.1


Tree=112
num_leaves=5
num_cat=0
split_feature=3 1 2 1
split_gain=0.070602 0.124203 0.0704237 0.000756349
threshold=3962.5000000000005 18.450000000000003 186.50000000000003 18.850000000000005
decision_type=8 10 10 10
left_child=2 -2 -1 -4
right_child=1 -3 3 -5
leaf_value=0 -0.020538471740770826 0 0.014960969846840758 0
leaf_weight=0.84700558707117934 2.6153117902576932 3.697361433878541 4.0699460543692112 1.4718956202268598
leaf_count=30 91 31 55 22
internal_value=0 -0.00622105 0.00756635 0.0131268
internal_weight=0 6.31267 6.38885 5.54184
internal_count=229 122 107 77
is_linear=0
shrinkage=0.1


Tree=113
num_leaves=4
num_cat=0
split_feature=2 3 2
split_gain=0.641331 0.096735 0.0112834
threshold=202.50000000000003 4325.0000000000009 210.50000000000003
decision_type=8 8 8
left_child=-1 -2 -3
right_child=1 2 -4
leaf_value=-0.031594206331883902 0 0 0.02503402018952754
leaf_weight=3.5717758461832991 1.0654485188424594 1.0552715882658956 3.6752201225608587
leaf_count=136 11 13 69
internal_value=0 0.0164982 0.0221722
internal_weight=0 5.79594 4.73049
internal_count=229 93 82
is_linear=0
shrinkage=0.1


Tree=114
num_leaves=6
num_cat=0
split_feature=0 0 3 3 3
split_gain=0.652283 0.180809 0.0997907 0.0182303 0.00968786
threshold=42.250000000000007 46.150000000000013 4425.0000000000009 3962.5000000000005 4287.5000000000009
decision_type=8 10 10 10 10
left_child=2 3 -1 -2 -5
right_child=1 -3 -4 4 -6
leaf_value=0.034213084771578674 -0.0063505300067037227 -0.029459757688769059 0 0.0063275041238132525 0
leaf_weight=3.8520538471639147 2.8997905030846596 3.2048937985673547 0.53410203382372845 2.0448016487061982 1.2369434554129837
leaf_count=87 13 86 6 9 28
internal_value=0 -0.0133144 0.029482 0 0.00241765
internal_weight=0 9.38643 4.38616 6.18154 3.28175
internal_count=229 136 93 50 37
is_linear=0
shrinkage=0.1


Tree=115
num_leaves=4
num_cat=0
split_feature=3 1 2
split_gain=0.0564449 0.11151 0.0632125
threshold=3962.5000000000005 18.450000000000003 186.50000000000003
decision_type=8 10 10
left_child=2 -2 -1
right_child=1 -3 -4
leaf_value=0 -0.019333285152904292 0 0.01240882816225216
leaf_weight=0.81927870586514373 2.5364942699670801 3.6699727335944772 5.4282450713217258
leaf_count=30 91 31 77
internal_value=0 -0.00535638 0.00702519
internal_weight=0 6.20647 6.24752
internal_count=229 122 107
is_linear=0
shrinkage=0.1


Tree=116
num_leaves=4
num_cat=0
split_feature=1 2 1
split_gain=0.576624 0.368753 0.00119631
threshold=17.150000000000002 202.50000000000003 17.350000000000005
decision_type=10 10 10
left_child=1 -1 -2
right_child=2 -3 -4
leaf_value=0 0 0.033973332859182304 -0.030888300987831852
leaf_weight=1.6782155372202394 0.429851055145264 3.6878661960363388 3.2501915562897921
leaf_count=29 12 81 107
internal_value=0 0.0164522 -0.0293922
internal_weight=0 5.36608 3.68004
internal_count=229 110 119
is_linear=0
shrinkage=0.1


Tree=117
num_leaves=5
num_cat=0
split_feature=0 1 1 0
split_gain=0.58747 0.279825 0.171531 0.132223
threshold=42.250000000000007 20.050000000000004 15.350000000000003 44.45000000000001
decision_type=8 8 10 10
left_child=2 3 -1 -2
right_child=1 -3 -4 -5
leaf_value=0 0 0 0.034815066524624863 -0.031648377637532261
leaf_weight=0.2981361448764791 2.6443148516118518 1.859453588724137 3.9440353494137526 4.7086432734504342
leaf_count=2 19 8 91 109
internal_value=0 -0.0125067 0.0285647 -0.0229399
internal_weight=0 9.21241 4.24217 7.35296
internal_count=229 136 93 128
is_linear=0
shrinkage=0.1


Tree=118
num_leaves=5
num_cat=0
split_feature=3 1 2 1
split_gain=0.0468116 0.0939847 0.0568454 0.000964134
threshold=3962.5000000000005 18.450000000000003 186.50000000000003 18.850000000000005
decision_type=8 10 10 10
left_child=2 -2 -1 -4
right_child=1 -3 3 -5
leaf_value=0 -0.017914534069398993 0 0.013413075260849519 0
leaf_weight=0.79504705406725307 2.4420257955789575 3.6260813791304827 3.8991407696157694 1.4257699269801376
leaf_count=30 91 31 55 22
internal_value=0 -0.00482872 0.00652689 0.0117401
internal_weight=0 6.06811 6.11996 5.32491
internal_count=229 122 107 77
is_linear=0
shrinkage=0.1


Tree=119
num_leaves=4
num_cat=0
split_feature=1 2 2
split_gain=0.507441 0.321634 0.135191
threshold=16.550000000000004 218.50000000000003 202.50000000000003
decision_type=10 10 10
left_child=2 -2 -1
right_child=1 -3 -4
leaf_value=0 -0.036024581608937144 0 0.028156991412736938
leaf_weight=1.1126325018703935 3.9395912000909448 0.61006873846054066 3.0768719427287579
leaf_count=11 136 5 77
internal_value=0 -0.0239906 0.0190349
internal_weight=0 4.54966 4.1895
internal_count=229 141 88
is_linear=0
shrinkage=0.1


Tree=120
num_leaves=4
num_cat=0
split_feature=2 1 3
split_gain=0.126749 0.0614982 0.0203604
threshold=197.50000000000003 17.550000000000004 4025.0000000000005
decision_type=8 10 10
left_child=1 -1 -2
right_child=2 -3 -4
leaf_value=0 0 0.014777326464557455 -0.013685958089092906
leaf_weight=2.6204039454460135 2.3868656083941469 5.2047268617898226 2.9035118408501148
leaf_count=39 20 75 95
internal_value=0 0.00915667 -0.00915781
internal_weight=0 7.82513 5.29038
internal_count=229 114 115
is_linear=0
shrinkage=0.1


Tree=121
num_leaves=5
num_cat=0
split_feature=3 1 2 1
split_gain=0.0403536 0.0806406 0.0503868 0.00147355
threshold=3962.5000000000005 18.750000000000004 186.50000000000003 18.850000000000005
decision_type=8 10 10 10
left_child=2 -2 -1 -4
right_child=1 -3 3 -5
leaf_value=0 -0.016034048323115248 0 0.012602926548315253 0
leaf_weight=0.77002194989472528 2.7539468379691252 3.2007397748529911 3.8065409604460001 1.3969694245606659
leaf_count=30 96 26 55 22
internal_value=0 -0.00477691 0.00592533 0.0109859
internal_weight=0 5.95469 5.97353 5.20351
internal_count=229 122 107 77
is_linear=0
shrinkage=0.1


Tree=122
num_leaves=4
num_cat=0
split_feature=1 2 2
split_gain=0.442892 0.305765 0.0458148
threshold=17.150000000000002 202.50000000000003 210.50000000000003
decision_type=10 10 10
left_child=1 -1 -2
right_child=2 -3 -4
leaf_value=0 -0.029574955720911109 0.031351350287689525 0
leaf_weight=1.6183810811489818 3.1485132798552518 3.3911593463271856 0.26303587108850468
leaf_count=29 117 81 2
internal_value=0 0.014471 -0.0268081
internal_weight=0 5.00954 3.41155
internal_count=229 110 119
is_linear=0
shrinkage=0.1


Tree=123
num_leaves=5
num_cat=0
split_feature=0 1 1 0
split_gain=0.506228 0.254921 0.152755 0.111215
threshold=42.250000000000007 20.050000000000004 15.350000000000003 44.45000000000001
decision_type=8 8 10 10
left_child=2 3 -1 -2
right_child=1 -3 -4 -5
leaf_value=0 0 0 0.033317475372956602 -0.030076890272142182
leaf_weight=0.28166967630386253 2.5879065524786702 1.8513173982501037 3.7475840244442225 4.5063039278611541
leaf_count=2 19 8 91 109
internal_value=0 -0.0115194 0.0272792 -0.021863
internal_weight=0 8.94553 4.02925 7.09421
internal_count=229 136 93 128
is_linear=0
shrinkage=0.1


Tree=124
num_leaves=4
num_cat=0
split_feature=3 1 2
split_gain=0.0333933 0.0691327 0.0479806
threshold=3962.5000000000005 18.750000000000004 186.50000000000003
decision_type=8 10 10
left_child=2 -2 -1
right_child=1 -3 -4
leaf_value=0 -0.014791404027532391 0 0.010656171515234356
leaf_weight=0.76561573334038158 2.6710551818832764 3.1828219490125775 5.1811336148530245
leaf_count=30 96 26 77
internal_value=0 -0.00403965 0.00565419
internal_weight=0 5.85388 5.94675
internal_count=229 122 107
is_linear=0
shrinkage=0.1


Tree=125
num_leaves=4
num_cat=0
split_feature=2 2 3
split_gain=0.376892 0.0465639 0.010419
threshold=204.00000000000003 210.50000000000003 4325.0000000000009
decision_type=8 8 10
left_child=-1 -2 -3
right_child=1 2 -4
leaf_value=-0.025994782394018708 0 0 0.020812269434923897
leaf_weight=3.1944931428879491 1.6042076051235206 0.9119949042797092 2.4731910191476345
leaf_count=139 19 4 67
internal_value=0 0.0124916 0.0178692
internal_weight=0 4.98939 3.38519
internal_count=229 90 71
is_linear=0
shrinkage=0.1


Tree=126
num_leaves=6
num_cat=0
split_feature=0 1 0 1 0
split_gain=0.442513 0.293862 0.0741976 0.00535408 0.00242828
threshold=41.600000000000009 17.950000000000003 45.95000000000001 16.050000000000004 46.250000000000007
decision_type=8 8 8 10 10
left_child=3 -2 -3 -1 -4
right_child=1 2 4 -5 -6
leaf_value=0 -0.029551633988728971 0.013895237663063262 0 0.028713957260532903 -0.0058057744292552707
leaf_weight=0.32622417807578985 3.5130809135735026 2.5102979112416515 1.4978736340999605 3.2159583680331707 1.6255455464124677
leaf_count=4 101 14 4 83 23
internal_value=0 -0.00994057 0 0.0274497 -0.00394634
internal_weight=0 9.1468 5.63372 3.54218 3.12342
internal_count=229 142 41 87 27
is_linear=0
shrinkage=0.1


Tree=127
num_leaves=2
num_cat=0
split_feature=3
split_gain=0.0272496
threshold=3962.5000000000005
decision_type=8
left_child=-1
right_child=-2
leaf_value=0.005048508801259937 -0.0038194349820014429
leaf_weight=5.8164980169385663 5.7699685180559763
leaf_count=107 122
internal_value=0
internal_weight=0
internal_count=229
is_linear=0
shrinkage=0.1


Tree=128
num_leaves=4
num_cat=0
split_feature=2 2 3
split_gain=0.326111 0.0417497 0.00828863
threshold=204.00000000000003 210.50000000000003 4325.0000000000009
decision_type=8 8 10
left_child=-1 -2 -3
right_child=1 2 -4
leaf_value=-0.024664294512404077 0 0 0.019485798874363271
leaf_weight=3.0703130383044481 1.5973562486469743 0.91084789857268367 2.3853503651916981
leaf_count=139 19 4 67
internal_value=0 0.0115412 0.0167303
internal_weight=0 4.89355 3.2962
internal_count=229 90 71
is_linear=0
shrinkage=0.1


Tree=129
num_leaves=5
num_cat=0
split_feature=0 1 1 0
split_gain=0.40106 0.224846 0.136243 0.0986402
threshold=42.250000000000007 20.050000000000004 15.350000000000003 44.45000000000001
decision_type=8 8 10 10
left_child=2 3 -1 -2
right_child=1 -3 -4 -5
leaf_value=0 0 0 0.031220314491867338 -0.028246936491014681
leaf_weight=0.27405942976474706 2.5475849825888863 1.8422683775424964 3.4974549487233162 4.2941919974982738
leaf_count=2 19 8 91 109
internal_value=0 -0.0101074 0.0251633 -0.0203197
internal_weight=0 8.68405 3.77151 6.84178
internal_count=229 136 93 128
is_linear=0
shrinkage=0.1


Tree=130
num_leaves=4
num_cat=0
split_feature=0 0 0
split_gain=0.194196 0.019301 0.00311048
threshold=45.95000000000001 42.250000000000007 46.150000000000013
decision_type=10 10 10
left_child=1 -1 -2
right_child=2 -3 -4
leaf_value=-0.017084181701320336 0 0 0.015025152251061267
leaf_weight=2.3018846330232918 0.77158483956009138 4.0417935326695442 4.3259507734328508
leaf_count=95 4 44 86
internal_value=0 -0.0102444 0.0138595
internal_weight=0 6.34368 5.09754
internal_count=229 139 90
is_linear=0
shrinkage=0.1


Tree=131
num_leaves=4
num_cat=0
split_feature=1 2 2
split_gain=0.331405 0.239419 0.0348506
threshold=17.150000000000002 202.50000000000003 210.50000000000003
decision_type=10 10 10
left_child=1 -1 -2
right_child=2 -3 -4
leaf_value=0 -0.026853573321648172 0.028229058827127708 0
leaf_weight=1.5459148399531839 2.890317390672863 3.0801420174539089 0.25420094281435002
leaf_count=29 117 81 2
internal_value=0 0.0123435 -0.0243474
internal_weight=0 4.62606 3.14452
internal_count=229 110 119
is_linear=0
shrinkage=0.1


Tree=132
num_leaves=4
num_cat=0
split_feature=2 1 3
split_gain=0.0765086 0.0542179 0.00746257
threshold=197.50000000000003 17.550000000000004 4025.0000000000005
decision_type=8 10 10
left_child=1 -1 -2
right_child=2 -3 -4
leaf_value=0 0 0.013233641172393477 -0.0099557517608996546
leaf_weight=2.40682304278016 2.2892969921231279 4.86778175085783 2.5742629896849394
leaf_count=39 20 75 95
internal_value=0 0.0076594 -0.00690593
internal_weight=0 7.2746 4.86356
internal_count=229 114 115
is_linear=0
shrinkage=0.1


Tree=133
num_leaves=6
num_cat=0
split_feature=0 3 3 0 0
split_gain=0.16457 0.275226 0.233826 0.0198915 0.00159731
threshold=45.95000000000001 3625.0000000000005 4862.5000000000009 42.250000000000007 46.45000000000001
decision_type=10 8 10 10 10
left_child=1 3 4 -1 -2
right_child=2 -3 -4 -5 -6
leaf_value=0 0 -0.028959651933582117 0 0.0081255273361329934 0.027899988430753045
leaf_weight=1.118527200073004 0.91514181997627009 3.0866592931561172 0.79631682392209757 2.0127624943852425 3.2713619722053409
leaf_count=45 7 85 39 9 44
internal_value=0 -0.00967089 0.0127372 0 0.0252583
internal_weight=0 6.21795 4.98282 3.13129 4.1865
internal_count=229 139 90 54 51
is_linear=0
shrinkage=0.1


Tree=134
num_leaves=4
num_cat=0
split_feature=1 2 2
split_gain=0.290839 0.28271 0.0455388
threshold=16.350000000000005 218.50000000000003 202.50000000000003
decision_type=10 10 10
left_child=2 -2 -1
right_child=1 -3 -4
leaf_value=0 -0.032311903598095312 0 0.020824771475106283
leaf_weight=0.93835463002324138 3.4828818719834089 0.65554984286427487 2.4830086715519428
leaf_count=7 140 7 75
internal_value=0 -0.0189914 0.0154478
internal_weight=0 4.13843 3.42136
internal_count=229 147 82
is_linear=0
shrinkage=0.1


Tree=135
num_leaves=5
num_cat=0
split_feature=0 1 1 0
split_gain=0.322081 0.203451 0.118487 0.0775108
threshold=42.250000000000007 20.050000000000004 15.350000000000003 44.45000000000001
decision_type=8 8 10 10
left_child=2 3 -1 -2
right_child=1 -3 -4 -5
leaf_value=0 0 0 0.029099536837430384 -0.026585418599594624
leaf_weight=0.26151700317859594 2.5062418840825549 1.8203468322753913 3.2674260176718235 4.0959188174456358
leaf_count=2 19 8 91 109
internal_value=0 -0.00916866 0.0231574 -0.0192825
internal_weight=0 8.42251 3.52894 6.60216
internal_count=229 136 93 128
is_linear=0
shrinkage=0.1


Tree=136
num_leaves=2
num_cat=0
split_feature=3
split_gain=0.0212157
threshold=3962.5000000000005
decision_type=8
left_child=-1
right_child=-2
leaf_value=0.0044827681916911177 -0.0035432322200575415
leaf_weight=5.4848876288160673 5.5189623236656198
leaf_count=107 122
internal_value=0
internal_weight=0
internal_count=229
is_linear=0
shrinkage=0.1


Tree=137
num_leaves=4
num_cat=0
split_feature=1 3 1
split_gain=0.251106 0.206998 0.00338312
threshold=17.150000000000002 3925.0000000000005 17.350000000000005
decision_type=10 10 10
left_child=1 -1 -2
right_child=2 -3 -4
leaf_value=0 0 0.02644505405156394 -0.022902712344280703
leaf_weight=1.5086318608373401 0.35538146737962995 2.9224219638854265 2.5684367790818214
leaf_count=29 12 81 107
internal_value=0 0.0111328 -0.0216427
internal_weight=0 4.43105 2.92382
internal_count=229 110 119
is_linear=0
shrinkage=0.1


Tree=138
num_leaves=3
num_cat=0
split_feature=0 0
split_gain=0.284645 0.112373
threshold=41.600000000000009 46.150000000000013
decision_type=8 10
left_child=-1 -2
right_child=1 -3
leaf_value=0.023385100614553862 0 -0.021957297056761447
leaf_weight=3.1165166087448588 6.0450953925028443 2.5655114632099867
leaf_count=87 56 86
internal_value=0 -0.0078702
internal_weight=0 8.61061
internal_count=229 142
is_linear=0
shrinkage=0.1


Tree=139
num_leaves=4
num_cat=0
split_feature=0 0 0
split_gain=0.129019 0.00636808 0.00164556
threshold=45.95000000000001 42.250000000000007 46.150000000000013
decision_type=10 10 10
left_child=1 -1 -2
right_child=2 -3 -4
leaf_value=-0.013880618080833976 0 0 0.012385585702250117
leaf_weight=2.1101594450883567 0.76929799560457457 3.9316119970753789 4.0265297405421734
leaf_count=95 4 44 86
internal_value=0 -0.00872092 0.0114106
internal_weight=0 6.04177 4.79583
internal_count=229 139 90
is_linear=0
shrinkage=0.1


Tree=140
num_leaves=4
num_cat=0
split_feature=1 3 1
split_gain=0.220967 0.189216 0.00310816
threshold=17.150000000000002 3925.0000000000005 17.350000000000005
decision_type=10 10 10
left_child=1 -1 -2
right_child=2 -3 -4
leaf_value=0 0 0.025299726747563006 -0.02193386864049704
leaf_weight=1.4954536929726598 0.35254037939012084 2.8262964077293873 2.4999247547239065
leaf_count=29 12 81 107
internal_value=0 0.0102302 -0.0207124
internal_weight=0 4.32175 2.85247
internal_count=229 110 119
is_linear=0
shrinkage=0.1


Tree=141
num_leaves=4
num_cat=0
split_feature=2 1 1
split_gain=0.0479025 0.0495806 2.4663e-06
threshold=197.50000000000003 17.550000000000004 1.0000000180025095e-35
decision_type=8 10 10
left_child=1 -1 -2
right_child=2 -3 -4
leaf_value=0 0 0.012005735411382737 -0.0058080131934123416
leaf_weight=2.2962506972253314 0.74967038631439287 4.6308157090097666 3.8392417095601559
leaf_count=39 2 75 113
internal_value=0 0.00631182 -0.00540406
internal_weight=0 6.92707 4.58891
internal_count=229 114 115
is_linear=0
shrinkage=0.1


Tree=142
num_leaves=2
num_cat=0
split_feature=3
split_gain=0.0209635
threshold=3962.5000000000005
decision_type=8
left_child=-1
right_child=-2
leaf_value=0.0043992375554615937 -0.0037137488938881139
leaf_weight=5.2860928913578382 5.3789469571784148
leaf_count=107 122
internal_value=0
internal_weight=0
internal_count=229
is_linear=0
shrinkage=0.1


Tree=143
num_leaves=4
num_cat=0
split_feature=2 3 2
split_gain=0.175984 0.0361272 0.000885141
threshold=202.50000000000003 4325.0000000000009 210.50000000000003
decision_type=8 8 8
left_child=-1 -2 -3
right_child=1 2 -4
leaf_value=-0.019904180300508226 0 0 0.013970002220635347
leaf_weight=2.4905905588530004 0.86030309088528145 0.84775432758033309 2.8279910702258348
leaf_count=136 11 13 69
internal_value=0 0.00825168 0.0125652
internal_weight=0 4.53605 3.67575
internal_count=229 93 82
is_linear=0
shrinkage=0.1


Tree=144
num_leaves=5
num_cat=0
split_feature=0 1 1 0
split_gain=0.243464 0.179369 0.101666 0.0625264
threshold=42.250000000000007 20.050000000000004 15.350000000000003 44.45000000000001
decision_type=8 8 10 10
left_child=2 3 -1 -2
right_child=1 -3 -4 -5
leaf_value=0 0 0 0.026745063330049432 -0.024691185607744335
leaf_weight=0.2506002932786936 2.4688124489039174 1.805426791310311 3.0371318273246288 3.8921105116605759
leaf_count=2 19 8 91 109
internal_value=0 -0.00784091 0.0208898 -0.0178951
internal_weight=0 8.16635 3.28773 6.36092
internal_count=229 136 93 128
is_linear=0
shrinkage=0.1


Tree=145
num_leaves=5
num_cat=0
split_feature=0 3 3 0
split_gain=0.1108 0.238948 0.196202 0.0145184
threshold=45.95000000000001 3625.0000000000005 4175.0000000000009 42.250000000000007
decision_type=10 8 10 10
left_child=1 3 -2 -1
right_child=2 -3 -4 -5
leaf_value=0 0.027671391011112878 -0.026921851086881374 0 0.0069785999755023823
leaf_weight=1.047990780323744 2.4292658232152462 2.9097062214277685 2.2505976464599371 1.9811305552721021
leaf_count=45 31 85 59 9
internal_value=0 -0.00800119 0.0108105 0
internal_weight=0 5.93883 4.67986 3.02912
internal_count=229 139 90 54
is_linear=0
shrinkage=0.1


Tree=146
num_leaves=4
num_cat=0
split_feature=2 3 2
split_gain=0.157162 0.0240385 0.000778034
threshold=204.00000000000003 4025.0000000000005 208.50000000000003
decision_type=8 8 8
left_child=-1 -2 -3
right_child=1 2 -4
leaf_value=-0.018592848928204755 0 0 0.011531624603891885
leaf_weight=2.5644521294161677 0.45371915772557248 0.49770918302238021 3.4186183679848909
leaf_count=139 4 8 78
internal_value=0 0.00795017 0.0108597
internal_weight=0 4.37005 3.91633
internal_count=229 90 86
is_linear=0
shrinkage=0.1


Tree=147
num_leaves=4
num_cat=0
split_feature=2 1 1
split_gain=0.0355134 0.046571 0.000748
threshold=197.50000000000003 17.550000000000004 1.0000000180025095e-35
decision_type=8 10 10
left_child=1 -1 -2
right_child=2 -3 -4
leaf_value=0 0 0.011346145502298956 -0.0050480902611116556
leaf_weight=2.2270439360290757 0.74992305040359575 4.4986783023923635 3.7267039464786649
leaf_count=39 2 75 113
internal_value=0 0.00559866 -0.0045418
internal_weight=0 6.72572 4.47663
internal_count=229 114 115
is_linear=0
shrinkage=0.1


Tree=148
num_leaves=2
num_cat=0
split_feature=3
split_gain=0.0145369
threshold=3962.5000000000005
decision_type=8
left_child=-1
right_child=-2
leaf_value=0.0037748671745889092 -0.0030426774931714491
leaf_weight=5.1338641373440614 5.2609780966304251
leaf_count=107 122
internal_value=0
internal_weight=0
internal_count=229
is_linear=0
shrinkage=0.1


Tree=149
num_leaves=4
num_cat=0
split_feature=1 2 2
split_gain=0.168008 0.159962 0.0237881
threshold=17.150000000000002 202.50000000000003 210.50000000000003
decision_type=10 10 10
left_child=1 -1 -2
right_child=2 -3 -4
leaf_value=0 -0.020932617414318924 0.023388926249685704 0
leaf_weight=1.4445572979748247 2.4400129290297632 2.6747735925018787 0.23836391419172276
leaf_count=29 117 81 2
internal_value=0 0.00895613 -0.0185771
internal_weight=0 4.11933 2.67838
internal_count=229 110 119
is_linear=0
shrinkage=0.1


Tree=150
num_leaves=4
num_cat=0
split_feature=2 1 1
split_gain=0.0289927 0.0416391 0.000501356
threshold=197.50000000000003 17.550000000000004 1.0000000180025095e-35
decision_type=8 10 10
left_child=1 -1 -2
right_child=2 -3 -4
leaf_value=0 0 0.010607405701520304 -0.0045128437788816414
leaf_weight=2.224965361878275 0.74992150068283159 4.4739396460354328 3.6853293105959892
leaf_count=39 2 75 113
internal_value=0 0.00509072 -0.00407841
internal_weight=0 6.69891 4.43525
internal_count=229 114 115
is_linear=0
shrinkage=0.1


Tree=151
num_leaves=2
num_cat=0
split_feature=3
split_gain=0.0123589
threshold=3962.5000000000005
decision_type=8
left_child=-1
right_child=-2
leaf_value=0.0036733991376055597 -0.0025685572078760562
leaf_weight=5.1206153929233542 5.2142581208609053
leaf_count=107 122
internal_value=0
internal_weight=0
internal_count=229
is_linear=0
shrinkage=0.1


Tree=152
num_leaves=4
num_cat=0
split_feature=2 2 3
split_gain=0.123213 0.0158884 0.00192363
threshold=210.50000000000003 202.50000000000003 4325.0000000000009
decision_type=8 10 10
left_child=1 -1 -2
right_child=2 -3 -4
leaf_value=-0.01723948387436176 0 0 0.012003987296756778
leaf_weight=2.3111470257863407 0.89205484092235598 1.5181407965719698 1.9575828090310095
leaf_count=136 4 22 67
internal_value=0 -0.0130718 0.0102815
internal_weight=0 3.82929 2.84964
internal_count=229 158 71
is_linear=0
shrinkage=0.1


Tree=153
num_leaves=3
num_cat=0
split_feature=0 0
split_gain=0.199722 0.0799625
threshold=41.600000000000009 46.150000000000013
decision_type=8 10
left_child=-1 -2
right_child=1 -3
leaf_value=0.020232807142802147 0 -0.019091838988536159
leaf_weight=2.8332471502944818 5.8832803266122937 2.3680268041789532
leaf_count=87 56 86
internal_value=0 -0.00680187
internal_weight=0 8.25131
internal_count=229 142
is_linear=0
shrinkage=0.1


Tree=154
num_leaves=5
num_cat=0
split_feature=0 3 3 0
split_gain=0.0909631 0.217798 0.171113 0.00398896
threshold=45.95000000000001 3412.5000000000005 4862.5000000000009 42.250000000000007
decision_type=10 8 8 10
left_child=1 3 -2 -1
right_child=2 -3 -4 -5
leaf_value=0 0.021758882107646996 -0.022452997066293855 0 0.0043456225143623716
leaf_weight=0.66405344568192948 3.8163044499233365 3.9956026216968894 0.71005289722234 1.1122991219162939
leaf_count=28 51 107 39 4
internal_value=0 -0.00709075 0.0101483 0
internal_weight=0 5.77196 4.52636 1.77635
internal_count=229 139 90 32
is_linear=0
shrinkage=0.1


Tree=155
num_leaves=4
num_cat=0
split_feature=1 2 2
split_gain=0.141549 0.199116 0.0254716
threshold=16.350000000000005 218.50000000000003 202.50000000000003
decision_type=10 10 10
left_child=2 -2 -1
right_child=1 -3 -4
leaf_value=0 -0.02724361683309522 0 0.015128213640118394
leaf_weight=0.91703798249363933 2.9677423126995568 0.5892859324812888 2.1304751373827457
leaf_count=7 140 7 75
internal_value=0 -0.014467 0.0106807
internal_weight=0 3.55703 3.04751
internal_count=229 147 82
is_linear=0
shrinkage=0.1


Tree=156
num_leaves=3
num_cat=0
split_feature=0 0
split_gain=0.172947 0.065398
threshold=41.600000000000009 46.150000000000013
decision_type=8 10
left_child=-1 -2
right_child=1 -3
leaf_value=0.018958175295828432 0 -0.017783969539259908
leaf_weight=2.7390467664226881 5.8604952590540051 2.2870412012562156
leaf_count=87 56 86
internal_value=0 -0.00649266
internal_weight=0 8.14754
internal_count=229 142
is_linear=0
shrinkage=0.1


Tree=157
num_leaves=2
num_cat=0
split_feature=3
split_gain=0.0113513
threshold=3962.5000000000005
decision_type=8
left_child=-1
right_child=-2
leaf_value=0.0035719683263354465 -0.0024585918814278621
leaf_weight=5.0067449091002336 5.1001475607045004
leaf_count=107 122
internal_value=0
internal_weight=0
internal_count=229
is_linear=0
shrinkage=0.1


Tree=158
num_leaves=4
num_cat=0
split_feature=1 2 2
split_gain=0.120829 0.134338 0.0194719
threshold=17.150000000000002 202.50000000000003 210.50000000000003
decision_type=10 10 10
left_child=1 -1 -2
right_child=2 -3 -4
leaf_value=0 -0.01835577645274469 0.0215435459309112 0
leaf_weight=1.4097900912165644 2.2751347348093991 2.5397626031190157 0.23179712146520604
leaf_count=29 117 81 2
internal_value=0 0.00777892 -0.0160978
internal_weight=0 3.94955 2.50693
internal_count=229 110 119
is_linear=0
shrinkage=0.1


Tree=159
num_leaves=5
num_cat=0
split_feature=0 1 1 0
split_gain=0.157193 0.153367 0.0797014 0.038864
threshold=42.250000000000007 20.050000000000004 15.350000000000003 44.45000000000001
decision_type=8 8 10 10
left_child=2 3 -1 -2
right_child=1 -3 -4 -5
leaf_value=0 0 0 0.023142522267459404 -0.022263992962382323
leaf_weight=0.23713063448667471 2.4000477232038984 1.7696637399494646 2.7267987933009863 3.6304941456764936
leaf_count=2 19 8 91 109
internal_value=0 -0.00651002 0.0173917 -0.0164679
internal_weight=0 7.80021 2.96393 6.03054
internal_count=229 136 93 128
is_linear=0
shrinkage=0.1


Tree=160
num_leaves=3
num_cat=0
split_feature=0 0
split_gain=0.0607026 0.00213007
threshold=45.95000000000001 42.250000000000007
decision_type=10 10
left_child=1 -1
right_child=-2 -3
leaf_value=-0.0092649281404474249 0.0084414475222563106 0
leaf_weight=1.8690148573368786 4.3615524722263217 3.7764491359703243
leaf_count=95 90 44
internal_value=0 -0.00581838
internal_weight=0 5.64546
internal_count=229 139
is_linear=0
shrinkage=0.1


Tree=161
num_leaves=4
num_cat=0
split_feature=1 2 2
split_gain=0.106332 0.124935 0.0182181
threshold=17.150000000000002 199.50000000000003 210.50000000000003
decision_type=10 8 10
left_child=1 -1 -2
right_child=2 -3 -4
leaf_value=0 -0.017572732802837759 0.018825176249762474 0
leaf_weight=0.65633107814937863 2.2280506561510269 3.2270762175321579 0.23195300996303547
leaf_count=27 117 83 2
internal_value=0 0.00713597 -0.0153442
internal_weight=0 3.88341 2.46
internal_count=229 110 119
is_linear=0
shrinkage=0.1


Tree=162
num_leaves=5
num_cat=0
split_feature=0 1 0 1
split_gain=0.131275 0.174091 0.0292285 0.00997047
threshold=41.600000000000009 17.950000000000003 45.95000000000001 15.950000000000001
decision_type=8 8 8 10
left_child=3 -2 -3 -1
right_child=1 2 -4 -5
leaf_value=0 -0.022823335176702139 0.0093576121609948906 0 0.018510786764815879
leaf_weight=0.22006325796246473 2.8269421481527397 2.3379292692989111 2.8150064051151276 2.3850659383460879
leaf_count=3 101 14 27 84
internal_value=0 -0.00530336 0 0.0171487
internal_weight=0 7.97988 5.15294 2.60513
internal_count=229 142 41 87
is_linear=0
shrinkage=0.1


Tree=163
num_leaves=4
num_cat=0
split_feature=0 3 3
split_gain=0.0503255 0.194741 0.143053
threshold=45.95000000000001 3412.5000000000005 4175.0000000000009
decision_type=10 8 10
left_child=1 -1 -2
right_child=2 -3 -4
leaf_value=0 0.023375711816829667 -0.021040294989621528 0
leaf_weight=1.7273252829909322 2.176905233412981 3.8459159680642188 2.1177302189171314
leaf_count=32 31 107 59
internal_value=0 -0.00548625 0.0075949
internal_weight=0 5.57324 4.29464
internal_count=229 139 90
is_linear=0
shrinkage=0.1


Tree=164
num_leaves=3
num_cat=0
split_feature=1 2
split_gain=0.0916152 0.156573
threshold=17.350000000000005 202.50000000000003
decision_type=10 10
left_child=1 -1
right_child=-2 -3
leaf_value=0 -0.015500551089949506 0.022063567938853893
leaf_weight=1.5634799860417841 2.0986466500908136 2.5689671467989683
leaf_count=40 107 82
internal_value=0 0.00578307
internal_weight=0 4.13245
internal_count=229 122
is_linear=0
shrinkage=0.1


Tree=165
num_leaves=4
num_cat=0
split_feature=0 2 0
split_gain=0.115527 0.0483198 0.0461059
threshold=42.250000000000007 204.00000000000003 46.150000000000013
decision_type=8 10 10
left_child=1 -1 -2
right_child=2 -3 -4
leaf_value=0.019985412063984437 0 0 -0.015021507208587012
leaf_weight=2.4918416608124967 5.4826175030320892 0.30565830320119847 2.1235991842113435
leaf_count=90 50 3 86
internal_value=0 0.0154928 -0.00532208
internal_weight=0 2.7975 7.60622
internal_count=229 93 136
is_linear=0
shrinkage=0.1


Tree=166
num_leaves=2
num_cat=0
split_feature=3
split_gain=0.00984963
threshold=3962.5000000000005
decision_type=8
left_child=-1
right_child=-2
leaf_value=0.003515925360834578 -0.0021366212159399933
leaf_weight=4.7801903700456014 4.9238122976385066
leaf_count=107 122
internal_value=0
internal_weight=0
internal_count=229
is_linear=0
shrinkage=0.1


Tree=167
num_leaves=4
num_cat=0
split_feature=1 2 2
split_gain=0.078982 0.156341 0.0160309
threshold=16.350000000000005 218.50000000000003 202.50000000000003
decision_type=10 10 10
left_child=2 -2 -1
right_child=1 -3 -4
leaf_value=0 -0.024027590306836117 0 0.011321739644165545
leaf_weight=0.90681003220379386 2.7029367345385258 0.55452020838856686 1.9312862325459716
leaf_count=7 140 7 75
internal_value=0 -0.0116153 0.00749194
internal_weight=0 3.25746 2.8381
internal_count=229 147 82
is_linear=0
shrinkage=0.1


Tree=168
num_leaves=4
num_cat=0
split_feature=0 2 0
split_gain=0.102635 0.0451822 0.041898
threshold=42.250000000000007 204.00000000000003 46.150000000000013
decision_type=8 10 10
left_child=1 -1 -2
right_child=2 -3 -4
leaf_value=0.019125574571643982 0 0 -0.014410720834770128
leaf_weight=2.4323205919936295 5.4698046781122693 0.30251686275005329 2.08979064039886
leaf_count=90 50 3 86
internal_value=0 0.0146692 -0.00510044
internal_weight=0 2.73484 7.5596
internal_count=229 93 136
is_linear=0
shrinkage=0.1


Tree=169
num_leaves=3
num_cat=0
split_feature=0 0
split_gain=0.0340512 0.000886505
threshold=45.95000000000001 46.150000000000013
decision_type=10 10
left_child=-1 -2
right_child=1 -3
leaf_value=-0.0042947869405918718 0 0.007232134432784045
leaf_weight=5.4458098611794412 0.76447373069822777 3.4066182868555188
leaf_count=139 4 86
internal_value=0 0.00654653
internal_weight=0 4.17109
internal_count=229 90
is_linear=0
shrinkage=0.1


Tree=170
num_leaves=3
num_cat=0
split_feature=1 3
split_gain=0.0671798 0.13335
threshold=17.350000000000005 3925.0000000000005
decision_type=10 10
left_child=1 -1
right_child=-2 -3
leaf_value=0 -0.013653265953094114 0.020449416361492848
leaf_weight=1.5329806050285699 2.001197028439492 2.4574688235297799
leaf_count=40 107 82
internal_value=0 0.00474458
internal_weight=0 3.99045
internal_count=229 122
is_linear=0
shrinkage=0.1


Tree=171
num_leaves=4
num_cat=0
split_feature=0 2 0
split_gain=0.0907923 0.0417355 0.036309
threshold=42.250000000000007 204.00000000000003 46.150000000000013
decision_type=8 10 10
left_child=1 -1 -2
right_child=2 -3 -4
leaf_value=0.018286187179206992 0 0 -0.013557113489439339
leaf_weight=2.3760566059499975 5.4571793777868161 0.29805357754230488 2.0439672525972128
leaf_count=90 50 3 86
internal_value=0 0.0139164 -0.00480625
internal_weight=0 2.67411 7.50115
internal_count=229 93 136
is_linear=0
shrinkage=0.1


Tree=172
num_leaves=3
num_cat=0
split_feature=0 0
split_gain=0.0276352 0.000574649
threshold=45.95000000000001 46.150000000000013
decision_type=10 10
left_child=-1 -2
right_child=1 -3
leaf_value=-0.0037096215538989599 0 0.0066765788831956319
leaf_weight=5.4008178506046534 0.76407749764621247 3.3523878557607532
leaf_count=139 4 86
internal_value=0 0.00606602
internal_weight=0 4.11647
internal_count=229 90
is_linear=0
shrinkage=0.1


Tree=173
num_leaves=4
num_cat=0
split_feature=1 3 3
split_gain=0.0587623 0.139091 0.012505
threshold=16.350000000000005 5150.0000000000009 3925.0000000000005
decision_type=10 10 10
left_child=2 -2 -1
right_child=1 -3 -4
leaf_value=0 -0.02251280988103551 0 0.0099631302573223481
leaf_weight=0.90102818794548545 2.5891934968531136 0.5442032404243945 1.8659059349447487
leaf_count=7 140 7 75
internal_value=0 -0.0101781 0.00650567
internal_weight=0 3.1334 2.76693
internal_count=229 147 82
is_linear=0
shrinkage=0.1


Tree=174
num_leaves=4
num_cat=0
split_feature=0 2 0
split_gain=0.07939 0.0386369 0.0312586
threshold=42.250000000000007 204.00000000000003 46.150000000000013
decision_type=8 10 10
